<?xml version="1.0"?>
<opencv_storage>
<neuralNet type_id="opencv-ml-ann-mlp">
  <layer_sizes type_id="opencv-matrix">
    <rows>1</rows>
    <cols>4</cols>
    <dt>i</dt>
    <data>
      388 300 100 13</data></layer_sizes>
  <activation_function>SIGMOID_SYM</activation_function>
  <f_param1>5.9999999999999998e-01</f_param1>
  <f_param2>1.</f_param2>
  <min_val>-9.4999999999999996e-01</min_val>
  <max_val>9.4999999999999996e-01</max_val>
  <min_val1>-9.7999999999999998e-01</min_val1>
  <max_val1>9.7999999999999998e-01</max_val1>
  <training_params>
    <train_method>BACKPROP</train_method>
    <dw_scale>1.0000000000000001e-01</dw_scale>
    <moment_scale>1.0000000000000001e-01</moment_scale>
    <term_criteria><epsilon>9.9999999392252903e-09</epsilon>
      <iterations>100</iterations></term_criteria></training_params>
  <input_scale>
    4.0769957641999694e-04 -4.6600976796590324e-03
    6.0409348694161647e-04 9.2792266083926000e-03 8.8183148640898538e-04
    -6.8997175888905627e-03 9.4352325402359072e-04
    5.0284245775180890e-03 1.0796380613455601e-03 4.3380218023795500e-03
    1.2067914307416954e-03 -2.1472257156327995e-03
    1.3666292228969878e-03 1.2042818623168004e-04 1.4521891563841535e-03
    3.1480636723485249e-03 1.5317425684245765e-03
    -2.3664600781379240e-03 1.5700826175737204e-03
    5.9062666040212326e-03 1.7702802266526371e-03
    -1.6445206846733611e-02 1.7880093413121714e-03
    3.9367102164421320e-03 1.8371814223071754e-03 9.6693505359438624e-03
    1.9671339232522323e-03 1.0532273953496376e-02 2.0815007071836042e-03
    -1.6335742295485011e-03 2.1462988351198722e-03
    5.4226624618051783e-04 2.1897862519637780e-03
    -8.5855304553557592e-03 2.3000636348758535e-03
    -4.9489835353408165e-03 2.4372843763154945e-03
    -1.0447378206979890e-03 2.4628407333378809e-03
    -8.2172693208001500e-04 2.5245308956281052e-03
    -1.1133851774190550e-02 2.5875697958343807e-03
    2.3031719572827493e-03 2.6611698278509325e-03 5.6834378045472417e-03
    2.8146230938247839e-03 -1.3200116625170876e-02
    2.8293962093985888e-03 2.5328059113300209e-03 2.9729176133485497e-03
    -3.3431878673293018e-03 3.0709914319333072e-03
    2.2599968252422073e-03 3.1264683782410933e-03 2.1162758852466982e-04
    3.1968583374781976e-03 -6.0051748998632398e-03
    3.3224256419563370e-03 4.1196583936262514e-03 3.4011762026317687e-03
    -1.2959342490168715e-03 3.4013291378109946e-03
    -1.0207680135846550e-02 3.5193614259682537e-03
    2.0497008655835135e-03 3.6777823839090592e-03 1.8944629432044171e-03
    3.6782689745634982e-03 -2.9778583200756755e-03
    3.7676719055031436e-03 -3.9685731789157984e-03
    3.8175325223081982e-03 -6.9951897640979357e-03
    3.9817459136570702e-03 -1.5602586142246494e-02
    3.9975477519393048e-03 -1.4549615024759455e-03
    4.0951343149798402e-03 -8.0440915569328416e-03
    4.0997996066433097e-03 -9.6150878631920096e-04
    4.1966589247432453e-03 -5.5806540293367795e-03
    4.2805196147372463e-03 -1.0205994605732647e-03
    4.3873202702797171e-03 6.1418484909699939e-03 4.4323988026943300e-03
    -6.4847079076855464e-04 4.5865065257983664e-03
    7.9050479938650234e-03 4.5532765065666621e-03 1.4213260092777302e-02
    4.7009470546656327e-03 -4.3877698842896889e-03
    4.7471773778601737e-03 -3.8194895636452734e-03
    4.8018951137504063e-03 1.1046232698756535e-02 4.8926275603146932e-03
    -2.4416598205449536e-04 5.0143822832089922e-03
    6.8591399510510419e-03 5.0407516105871446e-03 9.1002907818929697e-05
    5.1578669997886309e-03 -6.6157254445789841e-03
    5.1940284445587291e-03 -7.9794661587275825e-03
    5.3312223880204648e-03 5.2179010950374359e-03 5.5523090295761393e-03
    -1.6699392967077075e-02 5.5102109878351476e-03
    3.1564340495797184e-03 5.6501348203487596e-03 5.8032599176995985e-03
    5.7162296709187699e-03 -1.1750658391089768e-03
    5.7920160516713153e-03 -1.9078628417153427e-02
    5.8279384009040950e-03 4.7215935635060106e-03 5.9990993375594196e-03
    -1.0920116020776239e-02 5.9746634512363285e-03
    1.1251188662367939e-03 6.0890456827338672e-03 3.6948546342201053e-03
    6.2035095956339712e-03 -1.3131492181691451e-03
    6.1748481924058986e-03 -1.8960899544416478e-03
    6.2399430327942347e-03 3.9320573576391155e-03 6.4073439788359769e-03
    2.7028771341247454e-03 6.3662076416399179e-03 6.5732350367096685e-03
    6.4151745117633436e-03 3.5554354728702152e-04 6.4636263795914009e-03
    7.3144401971119251e-03 6.5301488698518663e-03 8.8014741045777667e-03
    6.6348593836688839e-03 -2.7540569606900578e-03
    6.7165699250254542e-03 1.1361663826643510e-03 6.7173751721899683e-03
    -9.2718831524457087e-03 6.8936116792954532e-03
    1.0553289277123630e-02 6.8506236915603820e-03
    -1.2432283724209874e-03 6.9234590090154688e-03
    -1.2502156079195598e-02 6.9688555606591505e-03
    -8.9222060333179060e-03 6.9843444713041181e-03
    -2.5180508417237731e-03 7.1027963644634444e-03
    -4.7996611602781078e-03 7.0540946551949403e-03
    -6.2003884648772524e-04 7.1079913275222135e-03
    -1.0717596610732089e-02 7.1596029008919966e-03
    2.0243352716760930e-03 7.2299601549432732e-03 1.8586479816893092e-03
    7.3155782287975500e-03 7.3720848113635194e-04 7.2788224464935781e-03
    -8.0561221881767485e-04 7.3531874936790809e-03
    -5.8041555994035581e-03 7.3969468690421140e-03
    -5.3107666015603640e-04 7.5268942988597053e-03
    -6.2479934845230435e-03 7.6196603093013288e-03
    2.1126689575473043e-03 7.5850371240796573e-03 1.7815743865527700e-03
    7.6007100100873616e-03 1.3572780692879098e-03 7.6835180979379835e-03
    1.1719373699930357e-02 7.8526129430115301e-03
    -3.6001339877885482e-03 7.8736426525897827e-03
    -1.3643350931120844e-03 7.8571576098550346e-03
    -4.5967862392991008e-03 7.9404301952725482e-03
    3.1189344090613467e-03 7.9932911573721652e-03
    -2.1772419870946425e-03 8.1044267333943050e-03
    -2.4036182082973049e-03 8.2819115625812137e-03
    -4.1131726956557760e-03 8.2953013917543214e-03
    3.8692916824773589e-03 8.2441605890425564e-03 3.0424410358885125e-03
    8.4086144093341413e-03 -1.4720496109332977e-03
    8.3758111238924661e-03 5.2894538746185910e-04 8.4566728284975450e-03
    -1.3255200430199764e-03 8.5142298434260407e-03
    4.6658823194042859e-05 8.5704609476862231e-03 2.0757171479583434e-03
    8.5773137354345254e-03 9.8739682328129914e-03 8.7110541276500374e-03
    -2.1968474111385065e-04 8.7765029941702134e-03
    -8.3372624744396974e-03 8.7598020992676242e-03
    -8.1171127492977932e-03 8.8859037392914030e-03
    1.6062507649479093e-03 8.9447814995124737e-03 3.0691945153467701e-04
    8.9777069487078989e-03 -8.4104909276142212e-03
    8.9329125886796930e-03 -8.6857593823262604e-03
    9.0060678797432726e-03 8.1949362325180576e-04 9.0452963146636246e-03
    9.3714340768648267e-03 9.1919121050648474e-03
    -9.3878176552161829e-04 9.2092131130327489e-03
    -1.9068300515675699e-03 9.3195953807949546e-03
    -1.8651037844608705e-02 9.3757159937880793e-03
    1.8024932835015363e-02 9.3361622766983347e-03 7.7323511686784748e-04
    9.4032850116910396e-03 -3.7898886835843536e-03
    9.4916752750174565e-03 3.3334145569779232e-03 9.5965545946037102e-03
    -4.2391701395931422e-03 9.5307483263952410e-03
    4.5552122810646085e-03 9.6368417375702099e-03
    -7.4921404588608768e-03 9.7705267127959020e-03
    -3.8457564283441857e-03 9.6552642782493179e-03
    -8.2044538301068986e-03 9.7531582628388146e-03
    -2.2561199343093239e-03 9.9595596810631067e-03
    -7.7120317527877569e-04 9.8727518720462260e-03
    -5.1011595283399769e-03 1.0124467967183731e-02
    6.2961375648479759e-03 1.0081942059190897e-02 1.2191793170695195e-02
    1.0101268690411941e-02 -1.5050268199714809e-02
    1.0242882150364181e-02 1.1252819291375938e-02 1.0195361571444614e-02
    3.4571646374854052e-03 1.0358214903708128e-02
    -3.6770931169529102e-04 1.0366472882940621e-02
    2.2566745586937954e-03 1.0373432396369668e-02
    -4.2200211924266189e-03 1.0400985600207439e-02
    -6.5269460275431627e-03 1.0494431436220445e-02
    3.0706496076860542e-04 1.0666083418865605e-02
    -4.6076422947032274e-03 1.0666025516970289e-02
    -5.0187835284291353e-03 1.0618111708330978e-02
    -8.0842157756829403e-03 1.0854676022663613e-02
    -4.1069034154821021e-03 1.0712171085282747e-02
    9.7680598720785699e-04 1.0752427703486040e-02 3.3253108233222755e-03
    1.0904791275478649e-02 -1.5424185791165974e-03
    1.0955653769060105e-02 4.6282475359612045e-03 1.0953281935930806e-02
    -7.0321292045190317e-03 1.0951992508046319e-02
    2.6532076844201862e-03 1.1167009303506448e-02 3.8692600906659160e-03
    1.1193829108414554e-02 -6.5395686406970719e-04
    1.1168887232739847e-02 -3.6089387768201342e-03
    1.1261149516420295e-02 -1.5584099439604970e-03
    1.1325852423673670e-02 4.3039379008233602e-03 1.1286937237587226e-02
    1.2689320209854771e-02 1.1358737776936401e-02 4.4993619249826342e-03
    1.1475188723562721e-02 -3.8029234379900094e-03
    1.1508152839756428e-02 -7.3301958468829521e-03
    1.1612838901482934e-02 1.0621179645266024e-02 1.1635422933151566e-02
    2.8260268861135685e-03 1.1633759408131696e-02 1.4129632073165199e-02
    1.1704446420790127e-02 2.3621552397065312e-04 1.1622062101391394e-02
    -6.1155652622036033e-03 1.1681179931929004e-02
    -2.7208685702351859e-03 1.1840945443020213e-02
    1.2660507389521444e-02 1.1932173026130951e-02
    -4.7891251219237306e-03 1.1924452474301610e-02
    -8.7748847153258595e-03 1.2039743444891979e-02
    3.8026807334558423e-04 1.2069334151376768e-02 3.2206738439993707e-03
    1.2121561620961478e-02 4.2829374085841037e-03 1.2216461188072637e-02
    1.5882475006157352e-03 1.2241243457544905e-02 5.4735117478396517e-03
    1.2260618880368961e-02 2.1169431890874614e-03 1.2324713041030569e-02
    -4.1228762135778361e-03 1.2429884238215902e-02
    5.1980343009299422e-03 1.2453847643478823e-02
    -4.0726402531731471e-03 1.2381822694636517e-02
    2.0619769670715766e-03 1.2626316330648486e-02
    -3.3665340598464655e-03 1.2311331900177169e-02
    7.7514144539517433e-04 1.2542412010714881e-02 7.5070955098789213e-03
    1.2643589690936546e-02 1.6561043302014292e-03 1.2565704744310496e-02
    7.1771723776473369e-03 1.2787773371583558e-02 6.0598339119584252e-03
    1.2824723238516356e-02 1.4747745297688903e-03 1.2942698598563694e-02
    4.7812394936137259e-03 1.2852553087710997e-02 4.8308997266120765e-03
    1.2953231508591821e-02 -4.9669210353188260e-03
    1.2939087663882231e-02 8.5106514417516033e-04 1.2966160222907105e-02
    3.6237594161592787e-03 1.2962858070988797e-02
    -3.9084717079958574e-03 1.3055414809584167e-02
    -1.5007253618468342e-03 1.3083106292189088e-02
    4.5347462690241919e-03 1.3259435041078505e-02
    -5.3460398655851083e-03 1.3244471342239911e-02
    -1.7510787541732194e-02 1.3301108992454812e-02
    7.7844035838826561e-04 1.3335390389868571e-02
    -5.9006461006757844e-03 1.3533292929174972e-02
    2.9932178006809042e-03 1.3787720252227104e-02
    -3.5308094702578186e-03 1.3512884814088515e-02
    7.0040526866119116e-03 1.3516145680346819e-02 2.6980243225373586e-03
    1.3570526746169638e-02 -6.2536076597526444e-03
    1.3778258003797597e-02 -1.6468025422769928e-03
    1.3842446282043779e-02 1.0290817733638937e-02 1.3633412386115257e-02
    4.5046421943749134e-03 1.3835427289870103e-02 3.8441157671360898e-03
    1.3999007880784335e-02 2.6286708991177981e-03 1.3842219081244387e-02
    -5.4492825845043674e-03 1.4016247947072730e-02
    3.6520547044340277e-03 1.3834272680033259e-02
    -4.1746029382660720e-03 1.3977655967928538e-02
    -4.1536828795342802e-03 1.4086311581855717e-02
    5.6472463562827879e-03 1.3950728503418008e-02 8.8863106393897821e-03
    1.4233784167408895e-02 8.5242815113140222e-03 1.4378748586105616e-02
    -1.1803820257307702e-03 1.4245483597581243e-02
    1.4811297513775374e-02 1.4261755298800966e-02 3.0228356067648655e-03
    1.4304562523314511e-02 2.9172894859979086e-03 1.4396486088850982e-02
    5.4314847713885055e-03 1.4429921795463244e-02 9.8390737151453200e-03
    1.4618196908010944e-02 -3.6275985849381861e-03
    1.4604165864463357e-02 5.2390837185606626e-03 1.4723825904101050e-02
    -8.7491136912454172e-04 1.4627412277395292e-02
    1.1717712724660956e-02 1.4717308061183444e-02 6.6123931160945362e-04
    1.4795659893139468e-02 -4.1397489210259469e-03
    1.4919088370078387e-02 -2.6562139628217938e-03
    1.4913196823651125e-02 -5.8492139894751024e-03
    1.5060697741557778e-02 -6.8892864162637133e-03
    1.5050599634096546e-02 4.8001897766782389e-03 1.5012784697181163e-02
    1.0702181012593872e-02 1.5082810775172616e-02 5.0107702913766749e-03
    1.5063476206905018e-02 2.3365052019203962e-03 1.5144624728113341e-02
    -1.0220220041356240e-03 1.5262613565652733e-02
    -7.9035410471696172e-03 1.5162113242230329e-02
    1.3927188238526866e-03 1.5421080987964500e-02 1.8972607756806712e-03
    1.5073627612931306e-02 1.5186046673195740e-03 1.5346309788788301e-02
    -8.5335656740396990e-03 1.5220058332351733e-02
    2.1732807715898360e-03 1.5431204267308310e-02 8.0682754329052375e-03
    1.5467941369717506e-02 -3.3679019582735768e-03
    1.5565506154080330e-02 -8.6420959157447290e-03
    1.5631873059659965e-02 8.5473602586179434e-03 1.5786643430704340e-02
    1.4677489118242269e-03 1.5707838051668661e-02
    -7.3454965842447762e-04 1.5664111100881811e-02
    8.2429861098610880e-03 1.5716160285527650e-02 3.2327476486495158e-03
    1.5706798202071513e-02 4.9618151959236476e-03 1.5986064549320493e-02
    1.4569920271118777e-02 1.5856109572047826e-02
    -4.6208093830083846e-03 1.6108650168840062e-02
    -4.3423170604084587e-03 1.6018692255327139e-02
    -4.7045946460978972e-04 1.6087014302762680e-02
    -3.8225999054511879e-03 1.6153048333839803e-02
    1.9986426544196501e-03 1.6300096317757438e-02
    -2.8708738733283536e-03 1.6081351245902320e-02
    9.7316092195728655e-03 1.6183050269007317e-02
    -3.0640208166087856e-03 1.6296372132248532e-02
    3.5065402392101758e-03 1.6200488514208154e-02 2.1739759346879640e-03
    1.6156119516761453e-02 -7.0095979116709540e-04
    1.6595493174765913e-02 2.8549827928388397e-04 1.6515570166744646e-02
    -8.7061548436144290e-03 1.6506918370979225e-02
    3.1456306333683013e-03 1.6584671973036987e-02
    -4.5136092803701186e-03 1.6684210028315650e-02
    1.4425126031785849e-04 1.6894984489616308e-02 2.9583488530034643e-03
    1.6955360611268330e-02 -4.4422553241595854e-03
    1.6757232348840946e-02 -1.9534401285806126e-03
    1.6653729530275049e-02 -8.1225283696680344e-03
    1.6664942634924483e-02 1.0498655284646396e-02 1.6811949908244955e-02
    1.2381842506278207e-02 1.6825048254800471e-02 3.9844499740174190e-03
    1.7086934691888801e-02 -7.9839753339139962e-03
    1.6919248593125689e-02 -7.4107188876109086e-03
    1.7223724797135666e-02 2.1571172228214648e-02 1.6970585642476763e-02
    2.1279081426635641e-03 1.7142577983430222e-02 8.2471524070868406e-03
    1.7234373238640438e-02 -6.8381273779863829e-03
    1.7175920364067045e-02 -2.8232247349172239e-03
    1.7318492032076596e-02 -1.1895270944059513e-03
    1.7398852918599206e-02 -7.5822093573579656e-03
    1.7498980312169257e-02 2.6754282926053840e-03 1.7712752434844634e-02
    -1.1609079391859862e-02 1.7425874470648910e-02
    8.4659332555768532e-03 1.7426381955458745e-02
    -4.8603615288195252e-03 1.7489029864473971e-02
    -5.5002269202420392e-03 1.7483946020705712e-02
    9.1517122652740746e-03 1.7844397476399015e-02
    -3.7758433496768700e-03 1.7740291513269970e-02
    1.5817207593988563e-02 1.7654686308886086e-02 6.0786251258233871e-03
    1.7818259148581785e-02 -1.3979323431621988e-02
    1.7885458656364563e-02 2.6082507111297218e-04 1.7784300894690384e-02
    5.0462581898400895e-03 1.8069650868502058e-02
    -9.8650816981760755e-03 1.8230092977419097e-02
    3.6527093216929484e-03 1.8358436750545409e-02
    -2.5298353375082208e-03 1.8216576111341431e-02
    5.0037286253894753e-03 1.8224773216519188e-02 4.3003853110685566e-03
    1.8074477141157737e-02 9.6604913911681831e-03 1.8344447559008707e-02
    -1.9072309281240214e-03 1.8439637672259611e-02
    2.1596905827479377e-03 1.8595042563671511e-02 5.5527711550512650e-03
    1.8633137446744628e-02 9.3710356072552545e-03 1.8634075851849959e-02
    8.2314087357807809e-03 1.8429963156561008e-02
    -1.9909336919657211e-03 1.8600437260694994e-02
    -6.0983232588839422e-03 1.8503576239001177e-02
    1.3184070378316677e-02 1.8555136906272862e-02 1.6737612453109065e-03
    1.8778725635207501e-02 2.8821049409849509e-03 1.8818039432448915e-02
    6.2608485950981663e-03 1.8712217605377175e-02
    -6.4843107364565651e-03 1.8773743862380343e-02
    -2.3993067847942625e-03 1.8892828121881259e-02
    5.9790412496837355e-03 1.9173418630812553e-02
    -1.6634876742260593e-03 1.8793228078700649e-02
    4.8520704890173474e-03 1.9019770733040176e-02
    -7.4362280667005613e-03 1.9286378061367727e-02
    1.4791025141388974e-02 1.9249674608933787e-02 8.4064841406466112e-03
    1.9162650036307120e-02 -5.2000292440102548e-03
    1.9281101688553969e-02 -1.1388077161042506e-02
    1.9299118303609305e-02 8.3801800667903832e-03 1.9554760805477193e-02
    3.4007841316457607e-03 1.9491793729302768e-02
    -5.5409047229075734e-03 1.9091708917335928e-02
    2.7769961790855891e-03 1.9278439210188514e-02 6.4785449279681774e-05
    1.9486002463739303e-02 -1.1740103347539660e-02
    1.9667345602732370e-02 1.3180246426273915e-03 1.9704924139798328e-02
    -1.4405345154923056e-03 1.9755978917666329e-02
    -8.7407547981750953e-03 1.9623024650917677e-02
    -1.3093135658415092e-03 1.9747694346019685e-02
    -4.7064655427126300e-03 1.9767313097334736e-02
    -1.4412998939394885e-03 2.0011860141881031e-02
    -2.2782272225815563e-03 1.9826774619806205e-02
    1.0437941469090876e-02 2.0047799220121468e-02
    -5.9461951927847661e-03 1.9893585199894814e-02
    -1.9116509472952281e-03 1.9959061562872030e-02
    6.6028741162125516e-03 1.9996311736154092e-02 4.1292782678036761e-03
    2.0176490344943607e-02 -2.0955490959057091e-03
    2.0363009379709560e-02 2.9405987233904751e-03 2.0098707077822409e-02
    -4.9743862086607882e-03 2.0376929366036273e-02
    5.1213489847047296e-03 2.0072480412152739e-02 1.0241045544972060e-02
    2.0229120293256839e-02 1.0432299269681881e-03 2.0383018162253953e-02
    4.3751293671574418e-03 2.0466220866536485e-02
    -1.3965679059797357e-03 2.0746327520696897e-02
    -5.5690826710635931e-03 2.0371751567922352e-02
    4.2414578612001716e-03 2.0590105200919376e-02 1.3996147771621794e-03
    2.0485759546180596e-02 2.8553526333858453e-03 2.0807445216488033e-02
    -1.1685652420636572e-02 2.0570768620459631e-02
    -8.3298930794689606e-03 2.0529241073627191e-02
    -2.4269921577766199e-04 2.0492349532776895e-02
    8.0228663514240548e-03 2.0546822036145346e-02 9.8272660743348498e-04
    2.0698979754144947e-02 -5.6305652746398678e-03
    2.0926384381350201e-02 -1.1558716850139735e-02
    2.0986299042335010e-02 8.6461106811859621e-03 2.1122613833745894e-02
    -2.5077043347324635e-03 2.1316018053669780e-02
    1.7857290523723316e-02 2.0910910590803730e-02
    -8.2804236379000716e-03 2.1622354775515749e-02
    7.2106969785604349e-03 2.1121763613373198e-02
    -2.2462106677287722e-03 2.1338480492240536e-02
    -1.2350652574770717e-02 2.1311619682273342e-02
    -2.6536691431692304e-03 2.1290272103787502e-02
    1.2960576597919045e-03 2.1309501904585599e-02
    -1.1577956550306695e-02 2.1649118120747188e-02
    1.0951754135341435e-02 2.1733806546558137e-02 1.2323919679042795e-04
    2.2003474835486772e-02 -1.1992145292219746e-02
    2.1858922124804069e-02 -4.0404024015815171e-04
    2.1573991181306519e-02 5.0268215394502387e-03 2.1718674594610621e-02
    -4.5891162404627529e-03 2.1620583519138984e-02
    -4.4372333704735967e-03 2.2112638550945325e-02
    -1.5161698459705665e-03 2.1720042503572262e-02
    -1.3374954693003014e-02 2.2090524550595354e-02
    9.7860780452506211e-03 2.1955920438628550e-02 9.1619388404872559e-03
    2.2152186443002670e-02 -3.9900137383359789e-03
    2.2177572726516756e-02 -5.4108151122194501e-03
    2.2175007312158740e-02 5.0912811964627953e-03 2.2139336791537696e-02
    -3.6104483758032158e-03 2.2259821989717384e-02
    2.6737651332166584e-03</input_scale>
  <output_scale>
    5.2631578947368418e-01 4.9999999999999994e-01 5.2631578947368418e-01
    4.9999999999999994e-01 5.2631578947368418e-01 4.9999999999999994e-01
    5.2631578947368418e-01 4.9999999999999994e-01 5.2631578947368418e-01
    4.9999999999999994e-01 5.2631578947368418e-01 4.9999999999999994e-01
    5.2631578947368418e-01 4.9999999999999994e-01 5.2631578947368418e-01
    4.9999999999999994e-01 5.2631578947368418e-01 4.9999999999999994e-01
    5.2631578947368418e-01 4.9999999999999994e-01 5.2631578947368418e-01
    4.9999999999999994e-01 5.2631578947368418e-01 4.9999999999999994e-01
    5.2631578947368418e-01 4.9999999999999994e-01</output_scale>
  <inv_output_scale>
    1.8999999999999999e+00 -9.4999999999999996e-01
    1.8999999999999999e+00 -9.4999999999999996e-01
    1.8999999999999999e+00 -9.4999999999999996e-01
    1.8999999999999999e+00 -9.4999999999999996e-01
    1.8999999999999999e+00 -9.4999999999999996e-01
    1.8999999999999999e+00 -9.4999999999999996e-01
    1.8999999999999999e+00 -9.4999999999999996e-01
    1.8999999999999999e+00 -9.4999999999999996e-01
    1.8999999999999999e+00 -9.4999999999999996e-01
    1.8999999999999999e+00 -9.4999999999999996e-01
    1.8999999999999999e+00 -9.4999999999999996e-01
    1.8999999999999999e+00 -9.4999999999999996e-01
    1.8999999999999999e+00 -9.4999999999999996e-01</inv_output_scale>
  <weights>
    <_>
      -7.6429362558047451e+00 -4.2229367519153727e-01
      -2.7967879995708039e-01 9.1836584185585490e-01
      5.6875176040268005e-01 -1.4510417286978791e-01
      -6.1079104850405774e-01 2.4824740718771640e-01
      1.4121607086119170e-01 -5.2030284506068436e-01
      -5.9323199675687255e-01 -2.0567664971667568e-01
      -9.9718197532380606e-02 -7.0888402075918816e-02
      1.2334631642905129e-02 -5.9987359344911872e-01
      1.1967283681739647e-01 6.9964883268462930e-01
      2.5131041523083684e-02 -2.9040681988392109e-01
      -7.1302185122612405e-01 -1.5428620128731091e-02
      1.9834317751577973e-01 5.6394835648407537e-01
      -6.0280189689036323e-01 5.0478870011342247e-01
      -4.1836600254101192e-01 4.0338734625967743e-01
      -1.8706401431792108e-01 -2.2672871126052882e-01
      -1.2920764384900887e-01 -1.3066096141627884e-01
      -6.4172611276851643e-01 2.1043776725814221e-02
      -3.6710802412907789e-01 6.0436702268410902e-01
      1.7291179102486928e-01 -2.2190427083197739e-01
      -2.7655457452022275e-02 -4.6199496224727576e-01
      -3.4793562712376724e-01 -3.9430093358808808e-02
      -3.5904626571151416e-01 -9.0791147386828297e-01
      2.6809000261544924e-01 7.6186341658855339e-01
      -5.1536393305810516e-02 4.9320867764185938e-01
      -3.9360390588756566e-01 1.0547800023943457e+00
      9.6885102755714825e-02 -6.0162026511585764e-01
      -8.7868978647208329e-01 -5.2099833119719108e-01
      -4.7146740523792080e-01 1.3595468080392392e-01
      -2.6450885923972347e-02 -9.7298410774101907e-01
      -6.2832600236197425e-02 9.7295344554562424e-01
      -3.0566400353633355e-01 -4.4584019361197752e-01
      -5.3968069091711979e-01 2.7526838960030629e-02
      -6.5433388717233265e-01 -9.5566243511135440e-01
      6.7338173598632228e-02 2.7682986877734812e-02
      -1.2492327640145731e-01 -7.6908502074729879e-01
      -6.0402454460216470e-01 2.2561401274054030e-01
      3.5156508816709842e-01 1.8314504827557110e-01
      -4.9566752111046103e-01 -4.5811679439457069e-02
      3.5570740496974840e-01 -4.9002261876913411e-01
      -8.0256160746174164e-04 3.8893785472809222e-02
      -4.4819376187825660e-01 3.4044006455302742e-02
      9.7586171195431937e-01 -1.9304505479628944e-01
      -3.5294843438334855e-01 -2.1879085763322609e-02
      -8.9010153675922110e-01 -2.3319657092362847e-01
      -2.7504712852797497e-01 -4.0273810006809191e-01
      -1.0723115980340079e+00 -6.4538000805051132e-01
      1.8665495873340263e-01 4.7482561848767574e-01
      2.1149069830921749e-01 6.3170917892294243e-01
      1.2133367197226854e+00 2.1468564155387998e-01
      -6.6514778366693716e-01 1.3793653783505658e-01
      -4.2691335366896105e-01 -2.2043949565573515e-01
      -4.7362695571084024e-01 -1.0152376993178975e+00
      5.5972972417601789e-02 -2.5757830979985359e-02
      -1.2459203496838561e-01 1.9443709955101948e-01
      6.7580975417156547e-02 -2.9881569911172601e-01
      -1.9439596112052576e-01 -2.9134940347227167e-01
      -2.7126241867144929e-01 -5.6991914321620700e-02
      -5.2033071961010191e-01 1.5424303722276406e-01
      6.8382403166154973e-02 -1.0414410742473903e+00
      -2.5767044070561862e-01 -2.2693165531652515e-01
      4.6016647667074423e-01 -3.5113995364231360e-01
      -1.0805795825478723e-01 6.5595061801074805e-01
      -4.5433239013265553e-01 1.7034849831160939e-01
      -2.9195303099848574e-01 -9.0571359321052691e-01
      5.0915601461569548e-01 1.9543539782131361e-01
      -1.0862963416930387e-01 4.5014728864493236e-01
      8.4324979848669501e-01 7.6877413465624073e-02
      2.9622252157349988e-01 3.7567309013232969e-01
      1.8788043666675268e-02 4.1901991894828378e-01
      -8.0644830607585072e-01 -5.3119146494815273e-01
      4.4151813968450043e-01 1.7844383633282421e-01
      2.2755264873563613e-01 5.4444531867922774e-01
      -1.0078220454198088e+00 -1.5423016458630692e-01
      -5.7713258907747211e-01 -9.6354660670458406e-02
      2.7083450186627012e-01 1.2564563126459294e-01
      1.8580041427488173e-01 -3.5315316065366059e-01
      5.4627812607619453e-01 2.8105196151343992e-02
      5.9197454694830898e-02 -7.5215437558470488e-01
      4.4546234101663584e-01 6.7482919800923025e-01
      2.3167260017329644e-01 -2.4268586755615607e-01
      1.6993672343179134e-01 7.2582463633054517e-01
      2.4580458727040962e-02 1.2900788990792605e-01
      -3.4561349068031788e-01 -4.0609818629198802e-01
      -6.4102313139091219e-02 6.0610670784757259e-01
      -9.0039674403632475e-02 3.2905978679440262e-01
      1.1372927877436325e-02 -4.3383585216895192e-02
      1.7319899972755942e-01 6.3038219879237534e-01
      -2.0330411926394620e-01 -1.1963723056057668e-01
      -3.7130308534216033e-01 -7.6911426463932020e-01
      6.8594212025234103e-01 -1.7360772251866949e-01
      7.7591583422183585e-01 -4.4702758067736420e-01
      -5.5063417758369005e-03 -2.6524875764161565e-01
      4.7832992157688009e-01 -1.1512009107299544e-01
      2.3957450307968675e-01 -4.4817150532997613e-01
      -1.4184423417099354e-01 1.4159293461007499e-01
      4.8671001398975877e-01 -8.2659293564783587e-01
      3.8208750780888895e-01 -5.0156676872203299e-01
      1.0432214101931245e+00 -2.9126142072164385e-01
      5.6702893566181389e-01 2.0392800672750239e-01
      4.8731672899560707e-02 -7.7790787063341249e-02
      -1.6296183000945066e-01 3.3694085128190865e-01
      -1.2302939784022668e+00 -8.4652887574584568e-01
      3.3862610699035534e-01 4.3027226078148606e-01
      -5.6240300859946013e-01 5.5911220364387770e-01
      1.8944656474182553e-01 -5.1309159066863896e-01
      -3.2012713673572468e-01 -2.0033731634746468e-01
      1.2856189182608120e+00 1.0762436430279843e+00
      6.2073686758597013e-01 -4.6773091070870865e-01
      -2.2105150092934736e-01 8.6982106454897001e-01
      -1.9305715374157850e-01 4.7266696800815927e-01
      5.1972078457023929e-01 7.5664222070291420e-01
      1.1579734664690822e-01 -7.5490583355184249e-01
      3.7877179562975943e-01 -2.1833968243656710e-01
      8.5087123023437006e-01 1.8408160326191592e-01
      9.2361111138497570e-02 5.1738452616054496e-02
      7.7633606207938155e-01 -3.6057561370025687e-01
      -4.2372405257660167e-01 -5.3443556931634571e-02
      -2.2263703740144786e-01 5.5928044508913355e-01
      2.4024417518792709e-01 3.1729538475577641e-02
      3.8102135870365583e-01 -2.8949242276192194e-01
      8.3487426003840448e-01 -4.3194599776491921e-01
      -4.4402810293293342e-02 -2.6498621785632215e-01
      7.1824101490632161e-02 -1.1519193484209196e-01
      -2.8649692434921337e-01 7.5668489014191331e-01
      -9.4674859863243796e-02 -3.5909578873212206e-01
      -2.3849536636991348e-01 3.3923581076455095e-01
      8.7756680988198929e-02 2.0320815900910225e-01
      5.0413825967918692e-02 5.4196117736489446e-01
      3.0258398239248441e-01 2.8057556390637273e-01
      6.4821362960260165e-01 1.3819509632576877e-02
      -2.8218922929205509e-01 -2.8928498508094180e-01
      2.1981900174878263e-01 1.7069285533885389e-01
      -5.9924741537284887e-01 -2.5589303936257440e-01
      7.7521584710477953e-01 2.5812080232976425e-01
      4.8714404864576832e-01 8.1607535696150646e-01
      2.9229284528977861e-01 -6.7155493803124799e-02
      -2.3562091873168825e-01 2.7123914652237412e-02
      4.6512641752515932e-01 -3.3502433326605580e-01
      3.4601020815533445e-01 4.6191257758165571e-01
      -5.7875703780402088e-01 2.6632463073716911e-01
      -5.3105679107308590e-01 -4.6075800847874815e-01
      7.1967515496259959e-02 1.2223304272940174e+00
      -8.6781883839115545e-02 -3.5596375164011200e-02
      -7.6859564598956187e-01 -3.3602209451156512e-01
      -6.8124657396359478e-02 -1.1159945379894658e-01
      3.4063241458548504e-01 3.0715954854487315e-01
      -5.3809135117257068e-01 4.4398335762212242e-02
      -3.4067095812105458e-01 3.6502588389607210e-01
      -7.9476088726444216e-01 -2.3927114794746193e-01
      -1.3006905849755418e-01 -4.4190318188354327e-01
      -5.0542304050716567e+00 -1.0897603747412539e-01
      2.3403923313263711e-01 -1.3438935791013429e-01
      4.2945393970717609e-02 6.0005421582354068e-01
      1.4937515618994882e-01 1.0840237135887196e-01
      -1.1826627617738601e-01 -2.1560206713579035e-02
      -1.4782300238793203e-01 -7.0466534705452355e-01
      -2.5687389811137012e-01 -2.6134538390559198e-01
      7.5915808158593293e-02 5.0977417009948112e-01
      6.7018104245774868e-02 2.4141607420936945e-01
      5.0433554237008099e-02 3.5932994040381433e-01
      -3.6147958524123708e-01 3.1838457483625432e-01
      7.7578647880877802e-02 -1.1063860136442782e-02
      7.3442455930620265e-01 -1.6341755004017280e-01
      -2.9175592175579906e-01 -1.5667224224085027e-01
      4.5269797909164999e-01 -1.2292014209207112e-01
      -8.9672692815548308e-02 -3.3747154040964056e-01
      6.3999983838604696e-02 -8.3451891258951735e-02
      8.4036001267161820e-02 -2.5294645354814960e-01
      1.9099215095097105e-01 6.9858283064427906e-01
      4.9525934207487125e-02 1.2713941752831950e-01
      -3.2561144261524677e-02 -1.6333063726373623e-01
      -5.1608088947288089e-01 -1.5113640511281271e-01
      -6.9586906109917926e-02 1.5954083541567005e-01
      2.8138958076336684e-01 7.3373842335534178e-02
      -3.1959799706001768e-02 1.4537691437841804e-01
      -4.1126367738240377e-01 3.7020065428478083e-01
      -4.0749837802154597e-02 5.9639542686557434e-01
      1.8688903502359702e-01 -1.1674113254152980e-01
      -1.9677946136037383e-01 4.0524659249153172e-01
      -6.4429041533145479e-02 2.1206779128697667e-01
      3.2167863227218507e-01 1.3596678440934479e-01
      2.4240303071036298e-01 1.7890541644595004e-01
      3.3744851710397775e-02 1.8122627450926404e-01
      -3.2820614569978107e-01 1.0500741168908026e-01
      2.3379605103704246e-01 -1.2314462348491241e-01
      2.1220305877476536e-01 3.3055734305659978e-01
      1.3919422040067214e-01 1.5564459789728238e-01
      -1.8393038520918753e-02 2.7790988763741886e-01
      1.4547247589565959e-01 2.7617365820378664e-01
      -5.5913037601704997e-02 -4.5221724513096334e-02
      1.9564024396096530e-01 -1.6119212488273099e-01
      -1.8351842269164034e-01 2.5347716545502941e-01
      2.8424664411451900e-01 6.5681742495419276e-02
      -1.1772190048210350e-01 3.3091140866984996e-02
      2.0762505391141627e-02 1.9753084016767733e-01
      6.1733567912271126e-01 1.1613885188669737e-01
      3.3660189262433843e-01 9.4799312538150521e-02
      -7.4572675864325554e-03 -1.8921911056912966e-01
      -4.0659874500226961e-01 -3.6117710850395190e-01
      -3.3460924210646427e-02 -1.0133368276527598e-01
      1.4490524613830227e-01 2.5525497511746797e-01
      3.1915814953754901e-01 -4.4738017393154882e-02
      1.8171010881995961e-01 1.5637085910282680e-01
      -9.8277982168104169e-02 1.3339907113734439e-01
      -2.5034147570458326e-01 1.2645708635804626e-01
      8.6249777368355585e-03 -2.8448167719802414e-01
      1.6806489605862202e-01 4.1622986788786578e-02
      -6.2906870718446861e-02 2.7930102746226648e-01
      -4.0582900897499846e-01 2.1631762936593144e-01
      -1.2972818049341198e-01 8.1106208139895331e-02
      2.9864073306980332e-01 -7.0667255034586957e-02
      7.3650398963559988e-02 -5.5079680010306435e-02
      -5.6200502189911583e-01 1.7064389262914387e-01
      2.3163338214863019e-01 3.2870155650460625e-01
      4.5918607007296462e-02 -3.7351425893370005e-01
      2.6913279452997230e-01 -4.4144860543845185e-02
      -2.6885077695978804e-01 3.4139172379422045e-01
      3.5385216819490223e-01 -3.3421203583509962e-01
      3.0480641747591158e-01 -4.8240770484306783e-03
      -3.5545144951786184e-01 -6.9764849833205814e-02
      1.5012043958236912e-01 -2.3749030268728075e-01
      6.9376300021924164e-01 2.1179618843898412e-01
      1.6253647784859152e-01 1.9246690016569395e-01
      -4.3771459741160375e-02 2.0410997486864574e-01
      2.0428322092149329e-01 -5.3665299737887084e-01
      6.4385580726525971e-01 1.8110674907166985e-01
      1.5950821161046044e-01 -6.2857511856608921e-03
      -3.2820560611064997e-01 1.3547410822053582e-01
      1.1941508508032549e-01 -1.1116233550417844e+00
      1.1678819015002605e-01 -2.8346445159222970e-02
      4.3893357146412537e-01 1.7083496811085913e-01
      -6.0755286197218476e-02 -3.4395641095015839e-01
      3.6036212899225345e-01 -5.3061812327461445e-03
      -1.6990062369824419e-01 -5.3397882584575951e-01
      1.5095273438926146e-01 -8.6394999127455893e-02
      -1.8488450463415812e-01 3.5562798158258202e-01
      -4.0799157519013435e-01 2.2701303340006349e-01
      -1.3993209691507053e-01 1.2097572530299465e-01
      1.8032301347227883e-01 -7.7644245139376787e-03
      -2.5391198156957545e-01 7.9774652559573819e-02
      1.6715124025260020e-01 2.4643318276275919e-01
      3.0529838076624731e-02 3.5169913318383295e-01
      -3.3249646333613009e-01 -1.7933571718383479e-01
      -8.1455534328009477e-03 -5.3124627790295131e-01
      4.0984893723370958e-01 2.5794041938998428e-02
      -9.8467434919423322e-02 3.2599725266127622e-01
      -1.3148513771675727e-01 1.4971785170742056e-02
      -5.4766141510248678e-01 5.7528627334579574e-01
      -1.5943701638089339e-01 2.6203113115931592e-01
      -2.6413241930120623e-01 1.4809967229952659e-01
      1.6993172923989300e-01 1.5010303627079924e-01
      9.7537357996997462e-02 7.4638391059856424e-01
      -2.1639500456687030e-01 1.4241345077870171e-01
      9.3365036009958685e-02 -2.8569877414104192e-02
      7.4741069071558433e-02 2.1701959516853966e-01
      4.7535458067442543e-01 4.8153692410184024e-01
      -1.8979220387943668e-01 2.3509033327115880e-01
      3.1261815623623729e-01 2.0876267491658304e-01
      -3.6458232840556583e-02 -3.1661323342927622e-01
      5.1071269436686828e-01 1.6593948237423189e-01
      -3.8556258220176186e-02 -3.8006350203684985e-01
      -2.0951909477556974e-01 1.0786183560723921e-01
      -6.2166598516524862e-01 8.4325811264461994e-02
      -4.4915436202568176e-01 -1.2397847901952872e-02
      2.7464194441244139e-01 -1.8901015597421980e-01
      4.0525061690135622e-01 8.6061129491308216e-02
      1.9095150179546161e-01 -4.1312928408083832e-01
      -2.0036316954861597e-01 -4.5799766669888370e-01
      -1.0453247540580152e-01 -8.6813316322015555e-02
      -1.6469540021732129e-01 -4.1156435399193819e-01
      1.7050154242992333e-01 5.6324873103904582e-01
      -6.2235827583333105e-02 2.0204171675950119e-02
      -4.2106888983479623e-01 3.4404628340244187e-01
      -1.0114187366274635e-01 -5.4711069272877266e-01
      -2.2093730242531320e-01 -1.5292179543372550e-01
      -9.5120761467982581e-02 -1.7552861964119582e-01
      2.2075759413692950e-01 -2.0885143137254805e-01
      1.9739058985215796e-01 -2.4840711895844220e-01
      -1.8193569047146727e-01 -1.2932438987751438e-01
      -2.4923838402791540e-02 2.9404617419080553e-01
      4.3346611989495581e-01 6.0644340497673244e-01
      -6.0302069069505380e-02 2.4931700191232506e-01
      1.0341093187057281e-01 3.7934926121178170e-01
      4.5217698977682901e-02 2.7630372753654647e-01
      -3.6050102772486659e-01 -8.5729050255844534e-03
      3.1652841744282367e-01 -2.0284890872492897e-01
      2.0959570961952469e-02 -8.8345181661732608e-02
      -4.7510197165041196e-01 -1.3806602705399849e-02
      3.2062096022296899e-01 -1.3209265768710099e-01
      -1.3263721486098015e-01 -5.9879329597271290e-02
      1.9597668262258799e-01 -2.9685123405128916e-01
      -1.6876068986884696e-01 -8.4231226216204891e-01
      4.7742283049095535e-01 -4.4457019512885148e-03
      -7.2296827732267388e-01 -4.3912005370280843e-01
      -5.0740886833268206e-01 1.3107793962039474e-01
      3.3388044575822097e-02 3.1679575540092458e-01
      -2.7950279383205773e-01 -1.2488085187999860e-02
      3.2724064393316148e-02 1.8715906798107175e-02
      1.1187175219869493e-01 -7.8079037935109105e-02
      -5.0726120052576051e-01 9.0814285210874562e-02
      -2.1830505029918266e+00 -6.7160599605661775e-01
      -3.8628739210096980e-01 3.1239470442560940e-01
      5.8701875959331629e-01 -2.3367487888624838e-01
      -4.2931147498909861e-01 8.9587797401819380e-02
      5.1272339277432522e-01 8.1732292549149343e-01
      6.6158763679117147e-02 5.3893111990568887e-01
      -4.5351445399529511e-01 1.6462036852904999e-01
      -6.7809400801384900e-01 -2.0797932635607128e-01
      -1.8911518953619413e-01 -1.2378316596006199e-01
      -2.1544411198136901e-01 -6.4847778189388561e-01
      2.9910908728729707e-01 -6.3394962492265838e-01
      -1.8640961313901272e-01 -3.5009834782224143e-02
      -2.6355000454481214e-01 -1.6692437336058019e-01
      -1.2184108659060824e-01 2.3519932713066480e-01
      5.2206623725768271e-03 5.8625048873130825e-01
      -5.6431449975582020e-02 5.5500956588446981e-01
      8.3497669563902088e-01 -2.7475513549718206e-01
      4.3930022114674561e-01 -2.6028569324836692e-01
      -1.7253781129947138e-01 -1.8026612784176771e-01
      -2.2580496299379374e-01 -7.2171709332489375e-01
      -1.3943591650394901e-02 4.4054814930524916e-01
      -6.1365987502502738e-02 2.0546284748872054e-01
      -2.0202100479755697e-01 2.2749706533541140e-02
      -8.7113927137271868e-02 1.6214620833928076e-01
      -1.8748703503404204e-01 -3.6892039247497482e-01
      5.7031420340552016e-02 -9.2350803045654373e-01
      -5.0426294996011822e-01 -5.7152646032090604e-01
      -6.1712426603393089e-01 7.2912739609163901e-01
      5.6556993655066584e-02 -7.2324777402835227e-01
      -3.2819932874279603e-02 -1.3384043428955678e-01
      -4.2959567407273141e-01 2.1250713588027600e-01
      4.1171185531262305e-01 -7.7936411397136876e-02
      2.9803150165422737e-01 -7.3463778413229053e-01
      2.1471173519062581e-01 -1.5295566766467186e-01
      1.7169945603631390e-01 2.9599527792923069e-01
      -6.4303702428044918e-01 -4.5584646864335143e-01
      1.9354435480201693e-01 4.3548452215840344e-01
      2.5508623077481318e-02 -2.5418753213166184e-01
      -3.3964220888980701e-01 -7.8339659478688406e-01
      2.9400635970312256e-01 4.9301041310232768e-01
      -5.0758320847722005e-01 -1.7926994345420508e-01
      1.0465578001581042e+00 -7.5868086469541673e-01
      -1.7719119910274933e-01 1.9014688923507705e-01
      -1.1188901849623498e+00 1.8664050568449023e-01
      -2.3594523278388780e-02 -5.1637052035310527e-01
      -4.0449500694841167e-01 7.5065709902520275e-02
      -1.2801103927568919e-01 -3.4740248710732069e-01
      -2.5301981174774923e-01 -3.2046105640577788e-01
      5.4228717166611085e-01 7.2873385723443607e-01
      -5.7094689623997760e-02 -2.7133248111096486e-01
      -2.8436869379264396e-01 -2.2712965976097288e-01
      -5.1812693597443160e-01 -4.7807741524549443e-03
      -1.6367244936275499e-01 4.6750116510846346e-01
      -5.2857095924011266e-01 -7.0248905118119445e-02
      -5.7169274561825190e-01 -2.2340629252812821e-01
      9.4338992782478037e-01 -7.1738144914813939e-01
      2.2144783417556407e-01 2.7385052970979412e-01
      -1.8932811038149924e-01 -2.6838240639380678e-01
      -3.4280818895579535e-01 -1.3115789136914486e+00
      -4.9145236137357010e-02 -2.3112155540867546e-01
      2.0191487987903067e-01 -7.6242015931960683e-01
      5.2781064088917706e-01 1.2291056368070398e-01
      2.1452662352771376e-01 -1.6746308467711232e-01
      2.2802797831774754e-01 -4.7746174263668312e-01
      7.3746151539659049e-02 -9.6989301583382384e-02
      -1.0119217791832341e-01 -1.8926469432566831e-01
      -3.5804877622219389e-01 -1.0185917464751949e-03
      9.5757265138594422e-02 8.1643015319752110e-01
      -2.5028877461100413e-01 2.0482133164268745e-01
      4.3190738434737155e-02 1.6033131355587876e-01
      -5.2150619009601262e-01 4.4732857355258060e-01
      -4.0394690955514795e-01 -5.0376350641068746e-01
      -3.8188986562916538e-01 -7.8896585544479300e-02
      3.0105434385857188e-01 3.2444166740979982e-02
      1.5647472949312424e-01 2.2847916123189382e-01
      1.4981572736178322e-01 2.3224441032675633e-01
      -4.4126264412605931e-01 2.7865028979111062e-01
      2.7736722632139821e-01 3.9251510785752819e-01
      7.4498048244635207e-01 4.9660596792631884e-01
      -1.1163476856925626e-01 2.6889736558128002e-01
      -3.0014232930851152e-03 -6.5408526777839773e-02
      -6.2074202310397626e-02 -1.7358040745415770e-01
      -1.4951650335510008e-01 -6.0181140986751820e-02
      -4.2093407739417121e-01 -4.8859628594681126e-02
      -3.7860484764224606e-01 2.1674480855672287e-01
      -2.3580053473822549e-01 4.7175650016743717e-02
      -4.7856749044923985e-02 8.9808595654885381e-01
      2.9686734388343994e-01 -2.0821600646809196e-01
      8.9953166482287752e-02 -9.8136346270799713e-01
      6.5144468331306260e-01 -6.3196969265563807e-01
      5.9640220108570530e-01 -1.3531783924386040e-01
      -3.2130604211349045e-01 -5.7183758561052289e-01
      -5.2083506073007532e-02 4.3365045216124984e-02
      7.3655370070064619e-01 5.9148215590022424e-01
      -6.8342528380199263e-01 -3.4876084408315311e-01
      2.2485006855875059e-01 -9.1816545780398218e-02
      -1.4391486215797292e-01 -1.9023643475303911e-01
      -5.0504906315079784e-02 -8.6740736340692057e-02
      2.2066416721720244e-01 2.5813595855513771e-01
      4.2079657267119312e-02 -2.0603922904962724e-01
      -1.2978297915835990e-01 -9.7621259663584162e-02
      -1.3866504668854462e-01 -2.0136371241039196e-02
      -2.3175919900141065e-01 -2.5093992916216540e-01
      1.2560646996715061e-02 3.0674504665811869e-01
      -3.8394875426907116e-02 -4.4193689775370226e-01
      1.1103801340899348e-01 -1.3356090358058215e-01
      -4.2561729632972212e-01 -4.8956085172984282e-01
      4.7008842280775266e-02 -2.1027924537314313e-01
      -8.5536240806027938e-02 5.1406527829767834e-01
      5.8592192801183673e-01 -1.4205989795786009e-01
      6.2084190768142133e-01 1.6826868609599557e-01
      4.5336006250591171e-01 1.0860798601116866e+00
      -1.5681876732442115e-02 -3.7217081708223387e-01
      3.5011028931267713e-01 2.4892693810426611e-01
      -8.3428509006891902e-02 -6.1372897102020138e-02
      -1.1991464831712723e-01 -9.5822207967137280e-02
      -2.7411480373488462e-01 -7.7066106417306726e-02
      -8.6774541299728863e-02 2.9982051454287817e-01
      -6.2377773433424122e-01 2.0972220863090091e-01
      -2.3210042490009292e-01 4.6725352908852119e-01
      -3.8793643950101003e-01 -5.4485946985685607e-01
      -3.4820249214246474e-01 9.1339221932227688e-01
      4.4916726649720984e-01 -1.4680212742929710e-01
      5.3956025183623813e-01 4.4728775967664375e-01
      6.2036026397429678e-01 9.7738620978653912e-01
      -3.8826210067037475e-01 2.9059441375703730e-02
      -5.6960117731529569e-01 -4.1416814945225972e-01
      -5.6328762173973590e-01 -1.3716832890986411e-01
      7.4811252345966306e-02 3.6556936953562619e-01
      1.7754329640997996e-01 -2.6606535824412564e-01
      -4.9829594220803564e-01 -2.4449249257394418e-01
      1.1674144386508362e-01 4.9233626466508429e-01
      -2.4711387947249756e-02 3.5750785338329499e-01
      2.0219661172894274e-01 4.2477696187403874e-01
      -1.8654892715465907e-01 -2.2242629860651109e-01
      1.0533984223023565e-01 7.9543704592482667e-02
      4.2897198476790643e-01 -3.2758976594174877e-01
      -6.0629067443741158e-01 5.9989230274704430e-01
      -1.6304528936959028e-01 4.4998730769918616e-01
      7.6761656548134230e-02 9.4524683462692993e-02
      -1.4852092276634737e-01 -2.2485793621381936e-02
      5.9957247781010570e-01 -9.6969257922452076e-02
      -2.8809576670827552e-01 4.6147139465329134e-01
      7.2534209970609720e-02 -1.7819509637121689e-01
      4.3447351506694504e-01 -4.4303233362311140e-01
      3.3199609758219617e-01 -3.2221532233085015e-01
      -6.1118316331491185e-01 1.5031237234449651e-01
      1.7363166293895121e-01 -9.2848068072037293e-01
      -3.9460764386342539e-01 -4.3283284743107248e-01
      6.4076468079594551e-02 -3.7565603832458982e-01
      -2.0644654024488812e+01 -4.5200570516026661e-01
      -3.4099575914084373e-01 -3.1861606353931538e-01
      -8.8451297281895236e-01 2.5074490781652625e-01
      -2.2296149031722082e-01 -2.7538669251564279e-01
      -4.4391669977631593e-01 -7.6267970218935177e-01
      -4.4911800635020388e-01 -1.7499402332182593e-01
      -2.3518312300496691e-01 2.2124500998738950e-01
      8.2077242889129165e-01 6.4109816103225370e-01
      6.8056467277934407e-02 8.1834083474921923e-02
      5.9264022536813891e-02 -1.1821924375985170e-01
      -4.5630000894148126e-01 -2.7701732948787261e-01
      -4.6369688303551121e-02 -3.1302906377968918e-02
      7.3914013891144825e-02 2.7302957660463528e-01
      -3.9836425671613801e-01 -2.1218341041842220e-01
      8.9121973341664048e-03 -7.9413029669243643e-02
      -8.6331239168376428e-02 1.5937582039679701e-01
      -5.1368628017983098e-01 -2.9945867916954533e-01
      -3.5076182265585809e-01 5.8944223715671040e-01
      4.7428170084580246e-01 -1.9415089450142871e-02
      2.1864326072939125e-01 6.5363468260168167e-01
      -6.3850764193386300e-01 1.1645260424415806e-02
      -4.2168042056600019e-01 -7.5346235305508724e-01
      4.0283104876547993e-01 6.0453206420405559e-01
      4.7451343771555649e-01 4.6494812431320426e-01
      -6.6287196759402922e-01 1.3091782105637720e-01
      5.1488322228804306e-01 -1.0678097421235835e-01
      2.7794066598785006e-01 -1.5937518660557540e-02
      3.8004502298946929e-01 -6.9388697885247630e-01
      3.2379597775807212e-01 1.8467266747016781e-01
      -3.5420664288881415e-01 3.6204864563889594e-01
      -2.0989349688058941e-02 2.4297064826863926e-01
      -6.7450669985158107e-01 6.9496847508077697e-01
      -2.4553494970168582e-01 8.6457096366128347e-02
      -5.0942258705184129e-01 -2.5999589086350317e-01
      -1.2124792315233681e+00 1.7432518084811671e-01
      5.9596306309389524e-01 4.2841795052267068e-01
      -1.5575103487975439e-01 -3.8072579946754281e-01
      -1.1623216099974689e+00 4.5347323857054173e-01
      2.7283401753399498e-02 -7.2210074573030480e-01
      2.6100286466289457e-01 -1.0698644739888545e-01
      2.5258477444841287e-01 1.0340323534494256e+00
      3.4059909889508744e-01 -8.4056457127661754e-01
      -3.2078677298087394e-01 -2.9645522719307660e-01
      2.2751871566598733e-01 -3.6678848680280568e-01
      3.5658144783423995e-01 6.2898016348658004e-01
      -4.0037278189638592e-02 -1.6965185509201261e-01
      2.3082182399877424e-01 1.7652003014319795e-01
      3.4450212528631435e-01 3.1190807141103022e-01
      -1.5782069094479495e-01 -4.0053814753840422e-01
      -6.5314821613815466e-01 9.3695946445625611e-01
      4.5747184729984930e-01 9.5777705264619784e-01
      5.4698750329352686e-01 -8.1320312608622813e-01
      2.9888256623158332e-01 5.7009706864693599e-01
      1.0502048608624295e-01 -1.5116619649276558e-01
      2.6958878958121962e-01 -1.4813626668394678e-01
      -6.5554550235379294e-01 2.2046335816028570e-01
      2.0286221146092900e-01 -4.2825212326997084e-02
      -4.5105690898891759e-01 -2.8814998690058578e-03
      1.1358075797795048e-01 9.7452784561903191e-02
      -7.3434437728779112e-02 5.5129118612149031e-02
      2.6268360658810091e-02 6.3250857620821901e-02
      2.3786618725776493e-02 2.0573618197211768e-01
      2.2217347228873191e-01 5.5973570971871750e-04
      4.2498505851967981e-02 2.3326206867028959e-01
      -1.0264444294217348e-01 4.1918304359971581e-01
      -9.4158644002734507e-02 -1.2183529778875034e-01
      5.9802281189249662e-01 1.1653499181526286e-01
      8.1959618692140412e-01 -5.9050628066582489e-01
      4.9292289987510524e-01 -4.4230976687922086e-01
      -5.0859114148768714e-01 -2.9848380739413521e-01
      -5.3000719796806217e-01 -1.0561196254756809e-01
      2.3890554790720248e-01 1.0003267764167374e-01
      -1.7703454314757863e-01 -1.3985376445161676e-01
      5.0465229212900066e-02 1.7364143349753287e-03
      -4.5368513099456498e-02 -1.1772824496464893e-01
      1.1694842851847181e-01 -5.5568381214630103e-01
      3.9976603804159588e-01 -4.7790055662498532e-01
      -3.6127994783890044e-01 -1.9189536969380194e-01
      -4.9324659094168327e-01 -3.3725993795805831e-01
      -5.6459841351736140e-01 -7.4236129098853298e-01
      -4.8187948252000602e-02 -1.3920393672971448e-01
      1.9494467456515133e-01 -1.6275635947199760e-01
      2.7090728673742132e-01 -5.9733622751248994e-01
      -1.0255079945396527e-01 -4.8717099852068046e-01
      1.9895596854471984e-01 -7.2848552953521772e-01
      2.6535259112312004e-01 -1.1542940508986016e-01
      4.2208412108319021e-01 4.4177620970393461e-01
      -4.9071431747303124e-01 -3.2267356007526045e-03
      1.2158331287852849e-02 2.7801081929094829e-01
      2.0853583991416486e-01 -6.2343391699229300e-01
      4.6724074665662962e-01 -2.5782970252941689e-01
      1.4145090031182375e-01 3.6514319959065111e-01
      6.1033216185880801e-01 -1.2741670821208945e-01
      -4.6975148249460086e-01 -4.9893401872362790e-02
      4.9468355471040371e-01 -6.8494275649273212e-02
      -1.0150924302970559e+00 -4.9929938449729129e-02
      1.2927193921015616e+00 1.7507140148061431e-01
      3.2575610509116470e-01 -3.4331562674083121e-01
      -6.1887246753643585e-02 -3.4773129999066166e-01
      -6.5105015847577538e-02 3.3586135506399473e-01
      -3.6551299098189743e-01 2.2438023148377240e-01
      4.5327123559530655e-02 -1.8469421640536612e-01
      3.2286590356079731e-01 1.2990338196161086e-01
      1.3672764071298413e-01 -7.9415223893154629e-01
      -2.7756824674157132e-01 -3.0963724113576396e-01
      1.9291012826789289e-01 -2.2550575424243130e-01
      6.2375746296733736e-01 1.2793516297434965e-01
      1.2482809628430430e-01 8.8822495206039931e-01
      -7.3619338006622209e-02 -7.5902604087912928e-01
      -6.7379772194838927e-01 6.7635886960705283e-01
      8.6030804833544772e-01 2.3050620858071913e-02
      -4.3810146956652207e-01 -6.1317940785919756e-01
      -4.2949697761893046e-01 -7.4844950513122385e-02
      -7.3097119345550840e-02 -1.8922981228915411e-01
      3.4425561303876712e-01 3.2074326828476435e-01
      3.7696274441272043e-01 -1.6142776861021302e-01
      -1.7075879111093364e-01 -1.4324413305645709e+00
      6.4622644895981496e-01 7.9458276786200280e-02
      7.5205030687920005e-01 7.6498542556791560e-01
      -2.9789558707951691e-01 -2.2130781730253662e-01
      -1.2762696588501390e-02 -3.2768664919770740e-01
      7.6702081196569044e-02 -6.1366229909702952e-01
      -2.3921222894972680e-01 3.0031767109150742e-01
      -6.1579856485716400e-01 3.0692437074913881e-01
      -4.2732896685016747e-01 2.0809502286426509e-01
      -3.0235504567203425e-01 -2.1306042213516063e-02
      -2.3295315869840574e-01 -2.0086474465534879e-01
      3.7283685517682608e-01 9.7314060157395493e-02
      -5.0763824946303826e-01 -3.4309404557693607e-01
      2.2361794439014540e-01 1.6342299280896963e-01
      2.7715185564828276e-01 -9.4857390069052916e-02
      1.6594888794234577e-01 4.9554258442608706e-01
      -1.8385395892870186e-02 4.5674389518939229e-01
      1.6576239248204180e-01 -8.2922596917225799e-01
      -6.9347208493562781e-02 3.5934792905010743e-01
      2.6816303599114799e-01 -2.0894514316681942e-01
      6.9376276559980188e-02 2.7500265492844550e-01
      3.0587372681361619e-01 -4.6737498848803372e-01
      4.1069156512086491e-01 -1.6500442312393446e-01
      -1.1387178139349992e-01 4.6888944228150445e-02
      5.8903350447582525e-01 -2.4801509978460462e-01
      -1.9827581212683604e-01 1.7875312625233932e+00
      2.3409441647313373e-01 -7.0792720931633324e-01
      2.2111953651705410e-01 -2.2953650474975068e-01
      -6.0715615329917638e-01 7.1767282126998733e-01
      -2.2338222659618062e-01 3.2386227375988330e-01
      4.5523699953911306e-01 -2.3650474290391429e-01
      -6.8821298418965463e-03 5.4887464206818448e-01
      3.3532380775764412e-02 -5.6621467552841111e-03
      -5.8533887202460744e-01 4.9470099969126480e-01
      7.4091539564453335e+00 3.1693821749961709e-01
      2.6679359144057846e-01 3.9497793247429402e-01
      2.2673335338700004e-01 -1.3849014930017691e+00
      1.0939569565702285e-01 -3.0851414219562190e-01
      8.3537145045424713e-02 -3.8662901049771242e-01
      2.3768118769594565e-01 -4.9042688384734738e-02
      7.4416672950088081e-01 2.5855610603770618e-01
      -1.3582771369088639e-01 -1.2969234825340323e+00
      -2.4785651758229160e-01 -8.3816708439310794e-01
      4.4980959687255663e-02 5.6358855549920939e-01
      4.1592403576399384e-01 -1.1246730978291637e-01
      -1.4581154599289239e-02 2.1116783396668956e-01
      -9.6695283612020866e-01 -1.3853370202750151e-01
      -6.2810178041034531e-02 5.2408521804846320e-01
      -5.9195949917916812e-01 -3.3851739880875686e-01
      -1.8894510300500838e-03 -3.6540663065585999e-01
      -3.8412892965544176e-01 7.2959201631034234e-04
      -3.8268904659121900e-01 2.9590849880331910e-01
      -2.1258506996676604e-01 -4.6247663328332639e-01
      1.8732112161328921e-02 -1.8277204744814285e-01
      5.1265200554102586e-01 4.3609030764701545e-02
      9.7382956729033032e-01 3.5282136557528293e-01
      -1.7977341924411382e-02 -5.7892973169668105e-01
      -3.8347235222570214e-01 -3.4429076949753462e-01
      2.7785696213116567e-01 4.7855547472855442e-01
      4.9351717496191594e-01 7.4995849712410179e-01
      9.5382669785551810e-01 2.8012766204121259e-01
      -3.1177829351848224e-01 -6.6517652768973701e-01
      2.5999166660051015e-01 5.6849370778049600e-02
      -1.5289084553137067e-01 -1.6902443475232790e-02
      -1.2084825122706846e+00 -5.1048889279497933e-01
      -3.4525609371850019e-01 -4.3515394708155059e-01
      2.6109247362887616e-01 4.4997900156197257e-01
      8.5204365422595607e-01 3.8169682816032680e-01
      -6.5057537900400808e-02 -1.8008730550179061e-01
      9.6596754486703660e-03 -4.4319268468566703e-01
      -7.8182783990110694e-01 -1.4645819873101826e-01
      5.1318925695908346e-01 -6.7972813001794863e-01
      1.5802808831375231e-01 6.4159428134048591e-01
      -8.2040996531069132e-01 -4.4264061554905854e-01
      -2.7563335682272871e-01 -4.1715720724808480e-01
      -6.4383031134422541e-01 5.0427178039194298e-01
      1.5502245247539370e-01 5.5399968664350829e-01
      1.1186569868866589e+00 -3.6460732873108054e-02
      -1.2282754853388760e-01 -3.8560214563180073e-01
      -7.3597072589954182e-01 1.0570753149520417e-02
      8.3834591144433243e-02 -1.2472544606691045e-01
      -1.1547713027466040e-01 6.0224764534196695e-01
      1.5491821568029756e-02 2.7326414921504188e-01
      5.2439377405183807e-01 -1.6742692593217607e-02
      6.3575374020503769e-02 2.5134943770613222e-01
      1.4859832740552376e-01 8.4743404963645508e-01
      -2.4494214463167951e-01 -7.3225172700240415e-01
      8.6289121159666082e-01 6.7451822686788357e-02
      8.9153961206523177e-02 -4.9422114462294281e-01
      -5.3503554584669133e-01 5.3833878500978698e-02
      -1.1796334502083394e+00 -7.8410058950293693e-01
      7.2747259069416181e-01 -6.0567780544067396e-01
      1.1999193921881524e+00 1.3570882580739005e+00
      9.1512826153438698e-01 -4.5313816490288768e-02
      -2.6494622516842642e-01 3.8191098735759799e-01
      1.9418810772399123e-01 -1.9834822781270817e-02
      1.2146167653366315e+00 -4.6789038648058406e-01
      -3.1385908611910174e-01 -1.0080705176840501e+00
      3.9084988222087652e-01 3.5355109915252425e-01
      3.3605468560542201e-01 -2.5110405414228454e-01
      -2.2619662455100012e-01 -9.0212555887664869e-01
      -1.1133030963731008e+00 -5.0639257422457917e-01
      -6.0689676293547978e-01 -2.2928992346377011e-01
      4.9439186579214867e-01 -7.8507512249863382e-02
      7.9884072626316371e-01 -3.8464520684884340e-01
      -6.6706887255933767e-01 -1.5843660668927143e-01
      5.9262607047864874e-02 -2.8000159470711417e-01
      -8.9090793877401278e-02 -2.7470447801028108e-01
      -2.3370443330295454e-01 1.1334024344958664e+00
      -1.7651434752219599e+00 -8.0712054008589440e-01
      5.4946356650955885e-01 -8.1358448822623261e-02
      1.9226178629725330e-01 -9.4513215210930857e-01
      -1.0250810899520344e+00 1.4677392742248547e+00
      3.5585588625670661e-01 -2.7755536244070006e-01
      -6.5598878051573073e-01 -3.5183053357243915e-01
      -2.2550901145362395e-01 9.0646484863557175e-01
      -7.2654226861648563e-01 6.0174059139667835e-01
      8.7602910682751678e-01 1.2047506416555234e+00
      2.6848477199664761e-01 4.8829694301666449e-01
      1.3994076887569357e-01 -2.6524508632049681e-01
      1.9031286447552045e-01 -1.5190309589296700e+00
      -3.2514404924939894e-01 5.9336356559040813e-02
      -8.4978817950751218e-01 1.4566771825030276e+00
      -1.4770078417683827e-01 4.6796309050450513e-01
      -5.2880240883512686e-01 2.8327020458938851e-01
      -5.3431303191955315e-01 -7.0972921915055220e-01
      -2.4983219368689479e-02 3.1852815419147681e-02
      -5.8175701909207811e-01 6.6569994144066599e-02
      -8.6486167456886365e-01 -2.1224127689566784e-03
      1.1346687402093047e+00 -3.6466865684594663e-01
      -1.3008452677938620e-01 -1.5895356016333970e-01
      6.3818670340942518e-01 -9.1292299871515548e-01
      3.8552313682104261e-01 -1.0415365333622251e+00
      7.9220529591001940e-02 -9.4769234118436282e-02
      -3.7383126716717363e-01 1.7611290261264870e-01
      6.8715868616748399e-01 -1.2367386994876397e+00
      7.0163882162215918e-01 -3.8639901497640816e-01
      -5.4730029580432860e-01 8.1939310653644504e-01
      4.3755089065146829e-01 -5.5207491107472584e-01
      -1.3210975017784095e+00 -6.9958576853502508e-01
      3.5934750755362044e-01 -1.4555722877601526e-01
      -8.0286834691458153e-01 -6.2374519661817829e-01
      9.5568556231182433e-02 9.5027650268438912e-01
      -1.3605505647539586e+00 -6.9147522112833759e-01
      -3.5939131032990962e-01 1.0638161382904066e+00
      -1.6224411967428792e-01 -1.8948450923109250e-01
      1.1841254094146114e+00 -1.2160600939055891e-01
      5.5615622245998697e-01 8.7328863031830267e-02
      -7.1325551827915978e-01 4.7031267322740017e-01
      -4.2803908504762200e-01 -2.6314589478251577e-01
      -3.1079918999121720e-01 6.9849549527812493e-01
      -5.2195897823538596e-02 7.5402036026447872e-01
      2.3010725943264065e-01 2.1158991036876067e-02
      1.2049010277796286e+00 9.5670396442398678e-02
      -5.8256992264686169e-01 -4.0890566833037445e-01
      2.7689970090189392e-01 -3.9393156523977102e-01
      3.8527015507390522e-01 -2.7943834712140775e-01
      -5.2143782005675310e-01 -2.2378847162532567e-01
      1.0985277888224719e-01 -8.0471448240686216e-01
      6.0741965240114459e-01 3.0683055193808856e-01
      4.0235181079018290e-01 9.1541694855357592e-01
      1.7854388236414437e-01 5.1923695101706413e-01
      7.2942838409533484e-01 1.2024522252357867e-01
      -3.7456160837313690e-01 -5.4485203709584262e-01
      -3.1197265994919521e-01 -1.2353949510303288e+00
      3.4659625622260376e-01 -1.0477838521231264e+00
      -5.0754134681402163e-01 -9.2261178492440921e-01
      1.8193110222568562e-01 -1.1552447435705204e+00
      3.5534978752573110e-01 8.1951317465949203e-01
      -1.1483557786781875e+00 5.6278023109041653e-01
      -2.1602415747999659e-01 1.6403902939120976e-01
      8.5113539427551077e-01 -4.4425078573675836e-01
      2.0143822802527758e-01 -6.4552974986527301e-01
      8.5050828060867201e-01 2.6895532563165647e-01
      -4.0662163569362059e-01 6.3222661590114881e-01
      -2.7508568592962895e-01 2.4984673760223011e-01
      -6.7475603422140684e-01 -4.2711184535479252e-01
      1.1212875445816590e+00 6.4214535629558922e-01
      -9.8239896262656556e-02 5.1342397776300480e-02
      -4.2549904227581464e-01 -3.4886268691201827e-01
      6.4408702011802677e-01 -2.0505885540393988e-02
      -1.4121592393965990e-01 -1.7578901031230859e-01
      1.3419389151708738e-01 5.5225349225877240e-01
      1.2010426829975855e+00 -5.0644821862838207e-01
      1.1397965761154644e+01 -9.2012024986120280e-02
      7.4396588660710611e-02 -1.2998439441063325e-01
      1.7390915446942265e-01 -3.3801636938690816e-01
      -2.1522587341724051e-02 1.2000779604852825e-01
      7.1823313702795144e-01 2.8502666451977005e-01
      5.5840119399472388e-01 4.7010878556181490e-01
      3.6625489665038841e-01 2.5760640554243813e-01
      4.6974454177726159e-02 -1.2022012338595499e-01
      -2.7451965871576486e-02 -1.2402815010926481e-01
      1.7693775400759948e-01 1.6244412524207882e-01
      2.3285512958839155e-01 -3.7194862208540602e-01
      -1.5909163804304363e-01 -1.0837363759208962e-01
      -8.5080160065897681e-01 1.5143563873808100e-01
      2.9737673691891975e-01 -3.5352328288005705e-02
      -7.0209852487110791e-01 2.1197987193180043e-01
      -1.5508099066860129e-01 1.2811605613944071e-01
      3.3973686851206865e-02 1.4803955079373063e-01
      -2.3113473817337091e-01 3.8752430981578972e-01
      -4.0449143966790757e-01 -3.4639176350201739e-01
      -2.2091545023117987e-01 -6.5120516382661447e-02
      -2.2615334511562193e-01 -8.3337450937871843e-02
      4.0499622622572728e-01 -1.9438302460146725e-01
      -9.3609793953035023e-02 -5.2850448691963502e-02
      -1.5415767584317255e-01 -2.5679145802533426e-01
      3.0095825515559116e-01 -2.1776910434065680e-01
      3.7566009830863634e-01 -2.4406178759422220e-01
      4.2894100184285279e-02 2.1560285349780575e-02
      -2.4556742998339050e-02 -3.1435814879826780e-02
      2.5298943532633972e-01 -1.8955286777361022e-01
      -2.4549572718015220e-01 -3.1700790312275490e-01
      -4.1497502556767557e-01 -4.8252961467731094e-02
      -1.0745800816614283e-01 3.4616687919323108e-01
      -3.4696992802453162e-02 4.1772045791403600e-01
      2.3770612730327159e-01 -1.4157185396706182e-01
      -2.9864235450009487e-02 1.3854344110179106e-01
      -2.1267498179168284e-01 -7.2862033433332474e-01
      -2.6520875342624889e-01 2.6819305329868115e-01
      1.5547591917546696e-01 -5.3783364264467814e-01
      2.2357037736048513e-01 2.4620709396599438e-01
      -6.1592932570660164e-01 9.6214654503026988e-03
      -1.8807855584295269e-01 2.8574105454096499e-01
      -1.2248504321024098e-02 -6.6920061021093352e-02
      3.8091677176921074e-01 1.7984000140650563e-01
      2.8620294180252598e-01 -4.4323941720122728e-01
      2.0591937252118886e-02 2.0394821930897908e-01
      -5.3476434826643227e-01 2.7414447016440752e-01
      -4.6467069916250342e-01 -1.7564533504423616e-01
      2.0638296346358748e-03 -3.5871760126549623e-01
      1.5618572414293405e-01 3.3919619982941979e-01
      -5.7223823577051768e-02 8.9380256120034612e-02
      1.6283966217788237e-01 2.0607087598522777e-01
      6.4462992881063427e-02 2.7211241238152040e-01
      4.3784907033453635e-01 1.5996801502458455e-01
      -4.4875680316429495e-01 2.8491499314005231e-01
      -1.7903180162968105e-01 1.3115368214431289e-01
      3.0320346633978715e-02 3.8410012552424050e-01
      -1.0743369395413824e-01 3.0734257298666474e-02
      2.9689028191416733e-01 1.0618774599800851e-01
      6.7341093262671770e-01 2.1098207062869975e-01
      2.6815203935690778e-02 4.1391167531520667e-01
      5.8644347977275371e-02 2.3010961073043631e-01
      -6.6670061983544665e-02 4.2989887171039631e-01
      6.1302996691883793e-01 -2.5535787380127528e-01
      -3.5788181767695754e-01 3.2185358147007602e-03
      -3.7601334264847408e-01 1.2942486627820599e-01
      1.8779875935512663e-01 -2.0735552170314514e-01
      6.9022835797648840e-01 -3.0620754950875823e-01
      -6.9114518402145408e-01 2.2197644371513789e-01
      -3.3128757770818579e-01 -5.2149815627572045e-02
      2.0191046282214020e-01 4.2577313703107203e-02
      -4.7235499590622160e-01 4.3721181850884294e-01
      -7.0828176162266276e-01 -2.1479993415162357e-01
      3.7574714118358924e-04 2.1378432816246803e-01
      3.0797799833120776e-01 -4.8862016705181741e-02
      -1.4548979883025326e-01 5.1554847130848225e-01
      -9.1945941187046343e-01 -5.0174232862263923e-01
      -2.6099410825515729e-02 -3.6294657478095393e-01
      -2.6596709915325534e-01 -2.3113767134278845e-01
      -6.0354782725571166e-01 1.4684948155576909e+00
      -2.7520048080220316e-01 -1.9820163820576098e-02
      -5.9353357025722830e-01 -2.1594737517035692e-01
      -1.6905790638277346e-01 8.4476315702839005e-02
      -4.1829580525443277e-01 -2.9067950529028197e-01
      2.1069540745077503e-01 3.8235416799261718e-01
      6.7982806437275134e-01 6.2249462353549811e-01
      2.7976688412303180e-01 1.0555722690374900e-01
      3.3622457966184560e-01 -5.5542157244177304e-01
      -4.7124267882867821e-01 -3.9978177353834088e-01
      -5.0885775151039392e-01 4.7141802869211345e-02
      -2.5129948197182383e-01 1.0642517697401552e-01
      2.1965330214237125e-01 1.8477951413892532e-01
      -5.8922010517704138e-01 -5.0788948484781704e-01
      3.5934445524681435e-01 -2.0881478012476465e-01
      3.7180527211652814e-01 1.6907599666634882e-01
      -5.4726579048267066e-01 3.3806251751939154e-01
      -3.5616924511616915e-01 -7.5841127397496821e-02
      2.8197897273821305e-02 1.2429592207973310e-01
      5.8427128985960541e-01 2.3638433205059167e-01
      6.3060826663245931e-02 -2.3775490577785852e-01
      -1.9041822051101978e-01 -2.0553157480305798e-01
      -3.9002891058418415e-01 -6.4335102689169928e-03
      7.1571772284931209e-02 -3.3002784606026736e-01
      4.9485851580315937e-01 2.2364156797739992e-01
      2.0120035042413495e-01 -3.3974693043867304e-01
      4.0607273769297797e-01 -2.0125313338193435e-01
      -4.1589942419919468e-01 -5.1860843000428214e-01
      2.1989200219817068e-01 -4.0382943891592554e-01
      -5.1643218080272490e-01 6.2076269922763563e-02
      -8.3994230514502694e-02 -1.9846000187321464e-01
      -7.9986560170656740e-01 -2.8851953093061850e-01
      -3.6150945980831312e-01 1.5025237042969514e-01
      -3.3355538857617711e-01 3.2823584531636751e-01
      3.6077352565127907e-01 -2.9513131173637751e-02
      9.4704129635714826e-02 -3.6543557672727606e-01
      -3.3022292853185059e-01 1.1034144168811397e-01
      -2.1165505491479189e-01 -1.1304707172084852e-01
      -6.5900622252835730e-02 -2.1673215411553243e-01
      1.3404088752529500e-01 -8.3573984647188279e-02
      5.6163832553905146e-01 -1.4623638901204100e-01
      -8.1881618357032851e-02 -1.4995471062222496e-01
      -2.5425550584614165e-01 -5.3236147383085308e-01
      5.9945740224656929e-01 2.3211803708846721e-01
      6.0489411403323090e-01 -1.7514996617659753e-01
      3.1108141624637387e-01 3.3907399061562998e-01
      1.3568691381033229e-01 3.1435392004480522e-01
      5.1900441847107202e-02 5.7236291108437198e-01
      -2.3163804215950368e-01 4.2370941172741317e-01
      2.0466802563673461e-01 2.9539457830713289e-01
      5.7870891998153817e-02 2.9134803510351420e-01
      1.8047893254891467e-01 -5.0872664955958669e-01
      2.7651501953407688e-03 -4.6620128680222778e-01
      -1.1568444484570496e-01 -5.7989769086437637e-01
      3.0098818269066746e-01 -4.6744968438939172e-01
      1.9224414592410402e-01 -6.9238647056888492e-01
      -7.9982803321422880e-02 -2.0235287486868839e-01
      -7.3127351107911265e-01 -1.7357339871046498e-01
      5.1107256033527931e-03 5.2249608328319141e-01
      4.9969376394860027e-01 -1.3101285025297052e-01
      -1.4251667061183396e-01 -8.2951791674410347e-01
      -7.6919648767729720e-02 2.6258496743090298e-01
      -4.0825178586812227e-02 2.9835540104379205e-01
      -2.6554895189235733e-01 1.2505632835825056e-01
      -6.0378069257379118e-02 -4.6655482489433781e-01
      7.6482439584910689e-01 7.2641351668172238e-01
      5.0118051634391503e-01 -1.0661683350242109e-01
      -2.8192223431391120e-02 -4.0758445167260249e-01
      8.4190661729090455e-01 2.3119247379993998e-01
      -2.2385195533294344e-01 -2.6178957070110714e-01
      -2.9419038886187542e-02 -9.3560967942046519e-02
      1.1542018021748079e+00 1.4307813570906697e-01
      6.2430031119112304e+00 6.8683270009589370e-01
      1.5788898519805375e-01 8.2799146314561325e-02
      6.0581435848449250e-01 6.5262787400321332e-01
      9.7693285733109606e-02 2.4691310334554478e-01
      -6.3174812753438070e-01 -2.0491613721855231e-01
      -2.7118157774756080e-01 -1.5422589861694197e-01
      4.1069434506818014e-01 5.3441521199676323e-01
      3.4756066014732651e-01 -5.1683433109701950e-02
      -1.4270044256859787e-01 9.7691478913473156e-02
      1.9726575774699281e-01 2.4508051046200571e-01
      -7.7168184069811796e-02 7.4931267622595210e-01
      2.9943568004669946e-01 7.7517885460918298e-02
      -3.0845084139888984e-01 3.7368504658724255e-01
      2.5878679150058098e-01 -1.7629996703347767e-01
      -6.5325291538285912e-01 1.3728835731546507e-01
      -3.9507187538178729e-01 -5.3682418489126715e-01
      -4.7932485908718364e-01 1.9326152355365875e-01
      9.4284456423148102e-02 -4.4654243057773457e-01
      -1.6373847556398854e-01 -5.1997494935692867e-01
      1.1438671131932260e-01 6.6861838946263386e-01
      5.9852888543951743e-01 -1.3812528747113226e-01
      5.9883599186073062e-02 -6.7186744657772135e-01
      -4.6564015979086759e-01 -1.1281896783413217e-01
      -3.2126155624244068e-01 -5.9607449673574966e-02
      -1.2452263685193680e-01 -6.6663209413086039e-03
      -2.1868627894867060e-01 6.5511769400577402e-01
      -6.7537818740219779e-01 -6.5506059284424678e-01
      -1.8812167418152026e-01 3.4623650873883616e-01
      -5.8041112147477159e-01 1.0557774931677677e-02
      1.2441995308847033e-01 -5.5942513370848157e-02
      1.1913136440784662e+00 -2.8431255390859622e-01
      -3.6670455305940358e-01 -5.5490266367367069e-01
      -3.0714059121710469e-01 -2.1250276871927667e-01
      1.9053135456644776e-01 2.3838337987189612e-01
      3.8349344980799321e-01 6.7181816512200208e-03
      2.1384002848172198e-01 9.1614861318671997e-02
      2.7691082252278865e-01 -3.3767707739579750e-01
      -1.0548660317548668e-01 -4.2051523682859071e-01
      -6.1109090662706082e-02 -5.8475118277400831e-02
      -2.5804501244592909e-01 -4.2365004477417206e-01
      1.3601670388395787e-01 -1.0414542168620438e+00
      -3.1582977540628016e-01 4.5430492543630357e-01
      -1.4907433332348072e-01 -5.7318685425190896e-01
      -2.4698208972942809e-02 6.2428676200395483e-01
      -3.7930206917929798e-01 -4.2099722901219999e-01
      1.7408201651907240e-01 2.4981928989324820e-02
      -4.6777795277868756e-01 3.3580284633277163e-01
      1.9830673536163260e-01 2.5850923116982505e-01
      4.8248661799732062e-01 -5.4892252121795226e-01
      -8.7017439070064415e-02 -4.0125622672998879e-01
      -5.1010734681742842e-01 -1.0805030225039742e+00
      -4.9021792364786210e-01 3.5437713797865988e-01
      -4.2420485360000559e-01 -5.4994860497732068e-01
      4.0050642460537395e-01 -1.9227174468259950e-01
      3.6221995562984682e-01 4.7141911256703201e-01
      -2.7476073751832880e-01 6.9351016850191305e-01
      2.5198799247134818e-01 2.9132124879553217e-01
      2.9204640922026737e-01 6.7506490771242189e-01
      -5.4654045103774307e-01 2.5943785086056437e-01
      -2.1936085703769095e-01 -7.7661056964572511e-02
      -6.6469591213654611e-01 5.2454354764581346e-01
      -2.2258741467904139e-01 -4.9278103916543564e-01
      -4.5340748915205636e-01 5.6983365581636802e-01
      -3.4907466245613039e-01 1.0562911924526638e-01
      2.8474251536877554e-01 -1.2695512873942771e-02
      -5.1728686582224348e-01 2.3987662626870920e-01
      6.9669176234303276e-01 5.7325619747797574e-01
      -3.3897641921855119e-02 5.9222167426396066e-01
      -5.3150303925308029e-01 3.0675392643462923e-01
      2.4784874576225929e-01 -2.9291795454781150e-01
      1.3089509645453807e+00 -3.6020510621194018e-01
      -4.6985114064412303e-01 3.2347343273366758e-01
      -1.8172588291218522e-01 3.9533797780754265e-01
      -9.1240369739922222e-01 -9.4775090183776767e-01
      -4.7092291355836552e-01 -6.3895049582548291e-01
      3.3409475111266318e-01 3.9592356050576127e-01
      1.1749352256762627e-01 4.6547103043667093e-01
      3.2165104766172009e-01 -2.4393090494068451e-01
      5.7816278081096961e-01 -1.7783321532945287e-01
      3.0455855948762595e-01 1.1536168745552090e-01
      -6.5692294127399786e-01 2.9225373616896377e-01
      2.9606144086556535e-01 1.7593915749777414e-01
      2.7627399285079152e-01 8.3602016356871156e-01
      -3.3915515236840976e-01 6.1213678845827200e-02
      -9.8357737936629247e-02 9.2795715392604922e-02
      1.7479016594959718e-01 -5.6200912451390173e-01
      3.4716011256757856e-01 2.1584564301714562e-01
      6.5563944617339465e-01 4.2762862547961522e-01
      1.6535719635060378e-01 -6.1835288060789244e-02
      -1.1010410065022541e-01 9.4000373558257369e-02
      -5.5506979401630507e-01 -1.3367318989382834e-01
      5.0373268598855825e-01 4.5629186824363399e-01
      5.5404391604255254e-01 3.7333295458116894e-01
      -3.0830714492296529e-01 -1.5767715227880541e-01
      3.0932036482081077e-01 4.4940530398373429e-01
      5.0458295171016410e-01 -1.7062962032762188e-01
      -2.4436820166906781e-01 8.7765050908239023e-02
      5.4336922238356025e-02 -3.1832607732475071e-01
      2.9943077528451750e-01 2.1537180774893247e-01
      3.5070324354895344e-01 -2.5061939828964463e-01
      1.2250818901268859e-01 -7.7759446138169475e-01
      -4.9155015722425616e-01 -3.7716406456468177e-01
      -2.0766977139461094e-02 6.8871184964211563e-01
      -3.7188996215376818e-01 2.1135374833720505e-01
      -2.2008228509042957e-01 4.9137493238676289e-01
      4.5544843137522231e-02 4.0254136959809123e-01
      6.0935381370382957e-01 7.4085675150100128e-01
      4.0089620128118381e-01 -1.6105557651798913e-01
      -1.4443734189255522e-01 2.9862366700391585e-01
      5.0593332054368778e-01 2.4315515860475517e-01
      -5.9835683549152741e-01 -1.1927942641485965e-02
      -2.7307356342072636e-01 -3.7413187548770921e-01
      8.8720079761078985e-01 5.0819141146912528e-01
      7.6241106789300087e-02 -2.2079562656785134e-01
      -4.3878701212938364e-05 -3.6931290879400258e-01
      5.0990826841143477e-01 9.9582831824067183e-03
      -1.9015675590434089e-01 8.3330432197038873e-01
      -5.3443513916697993e-01 -2.6744739249881455e-01
      -1.6515349510509167e-01 -3.7064968629468170e-01
      7.0097774418488712e-01 2.1999510056660340e-01
      1.1924742788017382e+00 2.4837916608062877e-01
      1.5173178941459288e-02 -5.5188550598781128e-01
      1.0569720895337421e-01 -6.6835189308490417e-01
      -1.8794527778542450e-01 1.4971019284821149e-01
      -4.7365666075722379e-01 -9.4960633317698628e-01
      3.2173597599160714e-01 -6.4598401689885621e-02
      8.3604207770618022e-01 3.5604914472573757e-01
      -4.6682961140243079e-01 -2.3024798312127023e-01
      1.5116406273107486e-01 -1.8183108049707408e-01
      3.6016691862422728e-01 1.3198644775808829e-01
      -8.1301408075751624e-01 -4.0346225572879196e-01
      -6.0327584069380613e-01 -1.3807896212555051e-01
      1.2747682036807131e-01 -4.2376662241644353e-01
      -4.7074752224978711e-01 9.2053819052330321e-01
      3.4763994995798730e-01 -2.2787560671876927e-01
      -2.5797343035739068e-01 3.7038100308634364e-01
      -3.8516373867047798e-01 1.8625269964585175e-01
      5.8227110090355187e-02 -4.4215244840201051e-01
      -1.8557729720005581e-01 4.1342491555870503e-01
      4.8957176552474457e-01 -3.7295241692425052e-01
      -5.4393011307285644e-01 -1.2888209494195847e-02
      1.7223905246619700e-01 1.8731706744961463e-01
      -2.4732260019752941e-02 7.3227457586173494e-01
      -1.3319321666948239e-01 2.7026548068842360e-01
      8.0877609996663957e-01 5.5920255686292509e-03
      -1.4620594547693681e-03 4.7434288920205131e-01
      -2.4713708552448418e-01 -5.6450732118222373e-02
      -3.9404456117082619e-02 1.1351564044154616e+00
      -1.2716713121595588e-01 -2.7930695342446510e-01
      -7.7376146670585844e-02 -1.0237876423709630e-01
      -6.4016570578397651e+00 -9.6846494261536728e-02
      -2.6659630081182178e-01 1.4497314400022260e-01
      2.1166348687488800e-02 -5.1776165942997798e-01
      3.6153653384831724e-01 -1.6881079990401973e-01
      -2.8505555310221359e-01 -1.7526111111044348e-01
      -4.4300978882122249e-01 -3.4657753747737730e-01
      1.3042639540116921e-01 -1.6569406814270041e-01
      -1.2477270346351806e-01 5.3278992194788466e-01
      -5.8719830255100669e-01 -1.7627297573745951e-01
      1.7062656754318931e-01 -1.0652219291712910e-01
      -1.8968898642954438e-01 -1.4275036607820457e-01
      -1.1726044567860942e-01 1.0344046256583439e-01
      3.0008436111422904e-01 -6.0478929286269545e-01
      1.2363231373324297e-01 2.0365365091478657e-01
      5.6013426050828619e-01 -2.0932036948599708e-01
      3.2108058931428773e-01 -3.3762016713043402e-01
      4.4047182271562254e-03 -1.4306357981205908e-01
      2.3776206143059964e-02 -3.2350550615120233e-01
      2.2604029451247978e-01 4.6936781030597402e-01
      -1.4406347807493237e-02 3.1231566418051104e-01
      -4.3245115218396929e-01 2.9232054432261467e-01
      -3.8778972735177392e-01 1.9999974638358617e-01
      2.3761717201545551e-01 -5.5893042710123429e-02
      3.0307676132599659e-01 9.3911812919365317e-02
      -4.9779044932503347e-01 2.7960861841056506e-01
      -3.8259786959478598e-02 1.4475241932277039e-01
      2.6699608795912311e-01 5.3574463946544679e-02
      -2.3117360203929599e-01 2.0948273238533346e-01
      4.4990429768615697e-01 2.4407792227975550e-01
      2.2528166233495454e-02 4.0343195402580789e-01
      -1.0611324689018131e-01 2.1308265528524825e-01
      1.4096863974010403e-02 -7.9252712335583494e-02
      -4.9828694175295708e-02 -2.6015860606396790e-01
      -1.0320776301356469e-01 2.4981000049119331e-01
      8.3288456671286232e-02 -2.0830286547885764e-02
      -2.8036243866736510e-01 2.7578392192709711e-01
      -6.2483977096737227e-03 1.8810646627431019e-01
      2.2367822286845257e-01 5.4839193042877699e-01
      3.1066759680524469e-01 1.4740668808347998e-01
      4.6146518884419457e-01 3.9280227527331063e-01
      4.4429610320591384e-01 2.5916218667563478e-02
      -1.1480524080390468e-01 -4.1214546906534205e-01
      -6.0073572108599288e-02 2.1536759941161818e-01
      7.8484024633521374e-02 4.2674162723529883e-02
      2.6655347308336269e-01 4.3308175706491345e-03
      -1.1063311487024456e-01 5.0148414835250932e-01
      1.9001395634985010e-01 -1.1979051155089022e-01
      -7.0339522304880301e-03 -2.0700691196371985e-02
      1.6671411341772618e-03 -1.1043387406260130e-01
      -1.6178370480220011e-01 -4.2092792622006804e-02
      5.3176788281952403e-01 3.6816109290383142e-01
      3.2948386483598963e-01 1.1185400127109219e-02
      -2.2527657606096554e-01 -1.2688773765470288e-01
      2.1533344652326097e-01 2.0356282436004688e-01
      3.9595646797838280e-02 -3.4859124844315492e-01
      -9.3684428767889669e-02 -3.4068720860033980e-01
      6.2282354196747320e-03 -6.3469474237833168e-01
      3.4574426460624835e-02 -2.7868393898903432e-01
      2.8223589454028236e-01 1.1571566432225984e-01
      1.1353886044073123e-01 1.3982013965253548e-01
      2.8687026143197653e-01 -1.0692482922441585e-01
      1.7260631371623927e-01 -3.3725927548633336e-02
      6.7429237978952353e-02 6.6049372992344368e-02
      4.8961655121169834e-01 3.4474829062454457e-02
      6.5717338599326813e-01 -5.0783291741274106e-01
      4.1277735138536675e-01 -1.6859544988277272e-01
      -1.9940924657483705e-01 -2.7365245607027183e-01
      7.6003391724027303e-01 7.6151844270805069e-02
      5.7206476998594345e-02 -4.3317575096782170e-02
      4.6354914400634328e-01 -4.5960958114372341e-01
      1.8807668028294369e-01 -9.4772488730876819e-02
      5.2237267188328673e-01 -7.9934553956287513e-02
      1.7433008554255700e-01 -3.6611900454738233e-01
      -1.1649960587960324e-02 2.9991793203091904e-01
      -1.0004542248595301e-01 -4.2429481674336617e-01
      5.6093182085787596e-01 1.2219029268053427e-01
      -4.8308095666151248e-02 -3.4501438736184192e-01
      -1.3891138217431942e-01 -1.9665683539822131e-02
      3.3681308810034222e-01 -7.0679091084280810e-01
      2.2406444843981135e-01 4.2850844534055313e-02
      2.7612693582760867e-01 1.4128692137005552e-01
      -1.3549139496863916e-01 6.5747913477756215e-02
      -3.3038631539907444e-02 -3.3672375135434272e-02
      -3.2848597630784210e-01 -1.0860943874077274e-01
      -2.0759918036062996e-01 -6.2503602055966856e-01
      -4.7902926876700336e-01 -2.9362234369722778e-01
      -1.3017213743606890e-01 1.8274650686719021e-01
      6.0759647020356715e-03 1.1263047285679686e-01
      -7.1753546737529528e-01 -2.8336283535360877e-02
      -2.2224329117526993e-02 -1.4397119419483712e-01
      2.0894938372510014e-01 -2.9796564037085554e-01
      3.1463754748935474e-01 -3.7615315347582357e-01
      -3.3600229053201641e-01 2.4388276333044481e-01
      -5.0582179147108763e-01 -6.6395608482070723e-01
      -2.2959518743823978e-01 -2.8221292666826533e-02
      1.9096109203189596e-01 1.1486664105848771e-01
      -4.1754069234332197e-01 3.5773407316425404e-01
      -2.9918624072876115e-01 -4.2279704527398952e-02
      1.6071172722355970e-01 -4.4886347645047969e-01
      1.5823485210612198e-01 4.2291640895197086e-01
      5.0082268951156428e-01 5.3721067229915931e-01
      1.3361893151924123e-01 1.0664985168392095e-01
      7.1377828694896603e-02 -7.5256721192079323e-02
      -2.6188316898779518e-01 2.8469415040580254e-01
      -1.0174524922822147e-01 -7.7444746470870685e-01
      -7.1063111874321475e-02 2.9060326195378910e-01
      1.2824332470257993e-01 -1.2811872289157752e-02
      -1.7943877368778255e-02 7.8929220498907646e-02
      2.6456217329413045e-01 3.4414935612693198e-01
      3.8540486298795568e-01 -3.2309940772467566e-01
      3.2527251051715250e-01 -3.8688520674729215e-01
      6.4980825606016326e-02 3.5219329194767740e-01
      1.7376530874014673e-01 2.8216141939966916e-01
      -1.8847637576797374e-01 -1.0307213712573468e-01
      -2.3988574459101261e-01 -3.2989156439521727e-01
      2.7095427460215482e-01 3.1798482922192504e-03
      1.9054112973721085e-01 2.8719709176563429e-01
      4.2783064153939378e-02 -3.7710355889347041e-02
      1.7739487576710022e-01 -2.6927121973634704e-01
      -8.8375935389874705e-02 -3.2994387409424403e-01
      -3.5377271484767082e-02 -4.9152289341328946e-02
      -8.4385295001887892e-02 -4.4505826105455620e-01
      -3.8840978662563738e-02 -3.1805183378078000e-02
      -9.8728988453843897e-02 -1.2428076801198903e-01
      -7.8047353427698751e-02 -4.9879314887719056e-01
      -2.4937806090728901e-01 1.1320508057448317e-01
      3.8466599531912532e-01 -4.6994724538106693e-02
      1.6967668824488150e-01 -2.6875773992621305e-01
      3.0250944745072711e-01 -1.6242396121824665e-01
      3.9689703810097954e-02 -1.0627697529312327e-01
      4.7611422750895915e-01 6.9552109584783708e-02
      1.4336504308905665e-01 2.5598879162763910e-01
      -3.6553486622149689e-01 -2.5315590889875150e-01
      2.5355624913171798e-01 5.4587416280823288e-02
      -2.8329230173460324e-01 2.8341817350233534e-01
      1.8807555084231705e-02 -1.9411093241393035e-01
      1.1148124715670590e-01 -3.5303277253407417e-01
      -5.6995432683774727e-01 2.5170262058418846e-01
      3.3141614575770006e-01 1.0015719839911844e-01
      9.1430444510120067e-03 3.2568697369074431e-02
      2.9485348360679919e-01 3.6016211006233539e-01
      1.6202072184926272e-01 -6.0757371983517905e-01
      1.2098326123294695e-01 -2.5746500803837963e-01
      -8.1997239351745591e-02 3.3066689267219458e-02
      -3.1301510397918908e-01 1.0049117551604428e-01
      -4.1621309977843918e-01 -1.2236717266231201e-02
      -3.2135165760239104e-01 9.6372188035880144e-02
      1.1455663013069920e-02 -1.4525414896831028e-02
      -3.2034061336083702e-01 -8.5123357219805476e-02
      4.9662527526433478e-03 3.1012448186161207e-01
      8.1545138157977632e+00 4.2727198716523535e-01
      -2.4958982011102890e-01 1.2273027561774201e-01
      -6.1930026734562471e-01 -9.8378260168507048e-01
      1.1033993003560626e-01 -4.2274787962226879e-01
      -7.9611177761630403e-01 -1.5096823472008305e+00
      1.2214297701412177e-01 2.5381802462438630e-01
      3.3215181332138372e-01 -2.1632936423186272e-01
      3.3895339234361410e-01 -1.2492252546225448e-01
      6.4982783229669583e-01 2.5080612231987337e-01
      -3.6066058420433988e-01 -3.9854596986876428e-01
      7.8902940906866448e-02 -1.5532486050138852e-01
      3.5142419749263534e-02 2.6620604459233060e-01
      -3.7016229081987129e-01 -1.8212508625494170e-01
      5.9952973854622049e-01 1.1425965416276979e-01
      1.7416507634711503e-02 -4.2066514816759387e-01
      2.5314441077389621e-01 -1.7903157363466504e-01
      -1.1720352291649863e-01 6.8694334251313560e-01
      2.2096769517125588e-02 1.5734126854735481e-01
      -2.2962593315347019e-01 -4.6292228057345874e-01
      1.6279500651217846e-02 -9.2485680869750564e-02
      -3.0934277103898083e-01 -1.2203104658897478e-01
      1.7334891747700970e-01 1.0299634033407021e+00
      7.1517999730489379e-01 2.3707191729963020e-01
      -9.8833027158802197e-02 -9.7691090164884226e-02
      -3.5171291759321564e-02 5.9706646347723014e-01
      2.8863698301128365e-01 -1.9656117420241581e-01
      2.2563325643663631e-02 -4.9533232685333772e-01
      -3.2170676319622282e-01 -1.3268526484968685e-01
      -3.1170795404824692e-01 -3.5357454347798256e-01
      2.6896874418927236e-01 3.5896704027065424e-01
      -9.8659842320369076e-02 -1.1709405761018142e-01
      -5.4674784407427590e-01 -7.5125651753098555e-01
      -5.5586617709707487e-01 -6.0542046410901296e-01
      4.3810078450478679e-01 2.1384853278624283e-01
      -2.6016544934290792e-01 -2.1669278705209893e-01
      1.3345601642849911e-01 2.4534815165383886e-01
      1.8381262706589718e-01 -1.0187023682272704e+00
      -4.4949501070911019e-01 8.0790967545835712e-01
      9.8898546023308026e-02 2.6504233788433340e-01
      9.0832465581407107e-01 -1.6506861910420653e-01
      3.7589567006200447e-02 3.5664473100292432e-01
      -2.7035620492827839e-01 1.4065976035114064e-01
      -8.3729321599678208e-01 -4.5507540563388987e-01
      4.2321185367641789e-01 2.4693293457647200e-01
      6.0974555652488681e-02 -5.8389252123743896e-01
      -1.0312569771949971e-01 -7.7674436901939481e-01
      -1.8946916903387439e-02 5.9439801950195637e-01
      -6.3739650846064227e-02 1.0586009139505639e+00
      -1.4103982248036703e-01 -3.6282626166926918e-01
      4.4785948643869544e-01 4.5889028882768890e-01
      2.4283730609913792e-01 -2.2454584232963090e-01
      3.8870360053176450e-01 -1.8941369049222803e-01
      -5.2420087291641504e-01 -1.0032101226606753e+00
      5.5552831379504586e-01 -2.5753590438675850e-01
      9.8276384538939776e-01 -3.8959993128759485e-01
      -4.7584201083114747e-01 6.4197897637599877e-01
      -8.3001540153197950e-01 -3.2026482445140320e-01
      -4.0949121543381461e-01 -4.1000366763320040e-01
      9.4737668530519104e-01 -2.0198907355495269e-01
      -1.8204051512308281e-01 2.5554259809861229e-01
      -5.1065841685958568e-01 2.1512269386854771e-01
      -4.2503653004965197e-01 -3.3023810479519994e-02
      1.3307495182661114e-01 2.1217168302247530e-01
      -5.6367219750043696e-01 -4.5679334031460522e-01
      1.1553864580582360e-01 3.9735137734959153e-01
      3.5369662202435655e-02 5.2029397841189640e-01
      -3.0453808909690494e-01 -6.8075826574643739e-01
      1.3227451434940146e-01 -2.2567717094554343e-01
      3.8054199554530932e-01 1.8884430501144481e-01
      1.0050599094408227e-01 -4.0271123017680766e-02
      -1.3203273742882199e-01 -1.3436157381759872e-01
      -6.7776798289360216e-02 5.3998877546259538e-02
      2.1926363857919801e-01 -6.2511687351795253e-01
      1.0325027668693854e-01 1.5674696712075120e-01
      -4.2068774018078148e-01 1.2830676001017882e-01
      1.4321703473572108e-02 -5.3717052235876561e-01
      3.0375871570524380e-02 2.5467284880041929e-01
      7.0351655548961542e-02 -3.0489981397602350e-01
      1.4020141698706731e-01 -1.2851379287060435e-01
      1.5002634527383280e-01 2.5281147375096819e-01
      5.8397746650699334e-01 1.0520068568620632e-01
      2.8742517296375591e-01 8.8918371951334785e-01
      -4.6945738114050994e-01 2.3547273189187598e-01
      2.6348083418695201e-01 5.1083181276870671e-01
      -1.1773043826439835e+00 -1.6281888336973324e-01
      -1.4791952786626691e-01 -9.1127797700196037e-02
      7.4309804715890793e-01 -1.8500087659131093e-01
      4.0339529355749321e-01 3.4556998275359060e-02
      -3.6261353810123603e-01 1.8772099432038789e-01
      -2.0064501993914274e-01 4.9529860342724852e-01
      -4.1541160017854778e-01 -2.4855937986287557e-01
      7.4358406908059782e-01 -1.4090834473231420e-01
      2.6192262994046356e-01 1.1659690275234034e+00
      -7.4417441212696367e-01 4.7900083600846738e-01
      1.6237662476989642e-01 -1.3751651049047328e-01
      1.7750981539418975e-01 -9.5434653389966428e-01
      -1.5184091025428093e-01 3.2219822064434944e-01
      5.2067315924972442e-02 -7.2706431862445930e-01
      -2.2228151413031969e-01 -1.7049170251537296e-01
      8.4748859620775296e-01 -9.9342136331769752e-03
      9.4078872551643863e-03 -1.7969513218394427e-02
      -7.7000342099024854e-01 -8.0671127567639167e-01
      -3.9533360340378958e-02 -6.9451797787824865e-01
      -3.2118965020701962e-01 -6.1683294125123925e-02
      -1.2143444391910577e-01 -6.7678520061267275e-02
      -6.3506615458553428e-01 -7.6438416271610565e-01
      -2.1935580833661422e-01 9.9322510322816623e-02
      2.6968120842019522e-01 -6.4574695014607653e-01
      -2.1445214377407826e-01 2.5885216969446845e-01
      -4.1724211776721026e-01 8.7180981675204050e-02
      -3.7021647345965375e-01 -1.7534243465424634e-01
      4.4361671335028807e-01 -1.3153780737436078e+00
      -1.9846248633363989e-01 -2.1100552643884127e-01
      2.2038452121833652e-01 4.7698083630769922e-01
      1.3325742994562997e-01 5.5597561814338281e-01
      -7.5311077171590246e-01 -2.2092706778946428e-01
      -5.8833448143179106e-04 5.3751488218410448e-01
      4.0710123137412646e-01 7.3813648676990740e-01
      2.5523375045788260e-01 -1.4946084305992316e-01
      9.9937884299038035e-03 2.4692267954876293e-01
      -7.7334170786438694e-01 -6.1468470386850681e-02
      1.6325498697700579e-02 -8.6657254552204122e-01
      -8.6380059413071331e-01 -4.6273593820407838e-01
      -3.0148672229111184e-01 4.5931759491921093e-01
      -2.7164241673101508e-01 -3.4581172399472304e-01
      4.4082589617583595e-01 -7.0486238268585832e-01
      -2.7528302379843717e-01 4.3756037904150702e-01
      -6.8337510756842773e-02 5.0254572082172011e-01
      3.0702573586864196e-01 -2.6413857152680575e-01
      -1.0533699200303555e-01 5.3830788494683102e-01
      -4.4242004382372851e-01 -3.9473499744633411e-01
      2.7062953033368309e-01 -6.8372299732832723e-02
      -7.6150843665192058e-01 1.9051411101497848e-01
      -1.7122565830822339e-03 -2.0886312470874388e-01
      9.1114610691522968e-01 5.6225402175235994e-01
      2.3867699731184569e-01 -2.7080841249205578e-02
      -8.5452733853317753e-01 -7.1390064233537720e-01
      9.2933035026850519e-01 -1.4238995127967180e-01
      -1.5327348171316023e-02 5.4143641681697752e-01
      -4.8941758793869616e-01 7.1875398046952352e-02
      1.4241464442162535e-01 7.4457698546187339e-03
      -7.3144876845885110e-02 9.0459270389733282e-01
      -1.6464896539986000e-02 -4.1715578985032593e-02
      3.0719372242612736e-01 -1.5285963942735584e-01
      -3.5813214181915143e-01 -6.6938462723118486e-02
      -2.9528593159318767e-01 1.0967699486230066e-01
      3.4850017066516942e-01 1.6464882807585493e-01
      2.3840761194761448e-01 1.1019072649729014e+00
      2.9873099023729860e-01 6.3584026425986784e-01
      -3.3857459933392303e-01 -2.1770091389558524e-01
      8.0182453467461592e+00 5.4750640355899893e-01
      -4.9335799939794603e-02 -3.4722144017181010e-02
      -2.7404736224035042e-01 3.5163916099306178e-02
      -1.3299037908151592e-01 -5.8400186068066830e-02
      -3.2706663514537537e-01 -6.2976308674408343e-01
      -5.4433195766011494e-02 4.6331972484425199e-01
      4.1204673317096548e-02 3.8449966941633926e-02
      1.9105380702298405e-01 -5.6535591099863325e-01
      6.2413244366409992e-01 2.5314857478879321e-01
      -1.7536601229865745e-01 -2.3090124397276673e-01
      1.6011142210430596e-02 1.7322702318150413e-01
      3.5311994151472659e-01 7.9287403829886444e-02
      -2.0724618887903601e-01 3.0978254629047247e-01
      8.8367692419122401e-02 3.6139509312107292e-02
      -3.2512963784912247e-01 -2.5750027786831653e-01
      -2.0913395178822672e-01 1.2931905515113809e-01
      -1.5716818691830231e-01 2.7729296262864961e-01
      -1.0123718206316930e-01 3.5706823482523709e-01
      -3.7924377927290023e-03 -6.5640936001272865e-01
      2.1899648635167832e-01 -7.7085187406467984e-02
      3.7223313036862676e-01 -2.3146948052292407e-01
      4.8770768981169049e-01 2.9132284977390233e-01
      2.0375694861488841e-01 -1.1428511320033547e-02
      -3.6389713425199605e-01 -1.8196062985298458e-01
      1.3151355937421734e-02 2.0467915893385868e-01
      -5.2122649309704113e-03 5.8450039448506318e-02
      -3.2321818931715873e-01 -6.6998004360398378e-01
      1.2757646299004272e-01 -2.0259494273843881e-01
      -4.6006653009935183e-01 -2.7727915530419650e-01
      1.2567833439146767e-01 -1.1137961106081019e-01
      1.0458221162790983e-01 -1.5606867049472709e-01
      -3.8468022314123135e-01 -6.9049986294893184e-01
      -2.2118709198091008e-01 -3.1866935910260574e-01
      2.8949281418563966e-01 -9.2546427867971088e-03
      -1.4803915471960954e-01 -3.8641310154201504e-02
      1.1698360920150382e-01 2.0611884641575229e-01
      1.0569526891545393e-01 -6.7411115353336681e-01
      -2.7404352349098621e-01 9.3177242111127351e-02
      -2.6141486477046455e-01 -1.3539740711140766e-01
      5.1874729832242572e-01 -3.5973259913418254e-01
      -3.3042547041608178e-01 -2.1531362615929850e-01
      -7.7525571887451711e-02 7.9530239907139866e-02
      -4.7001198072489903e-01 -4.8359027608456379e-01
      -3.5068235868365251e-02 3.3037299601392633e-01
      -1.5125065221546050e-01 -3.1896413627325487e-01
      1.5018172733779372e-01 -7.6850396399865228e-01
      -2.3534663733684844e-01 2.9504172792556699e-01
      -2.0499931028754685e-02 6.1441364804599030e-01
      8.4188821874632377e-02 -8.4701429407645051e-02
      1.7267208602723838e-01 1.3804428101074755e-02
      -4.1947749596192996e-01 -6.2506504862732415e-01
      -1.8887426317481307e-01 -1.4103849033465396e-01
      -2.1708796732932265e-01 -6.0587688202131040e-01
      2.2854485459856047e-01 -4.4171388953577845e-01
      7.3318166771613258e-01 9.0330126868835833e-02
      -1.3681663563073798e-01 5.3470167366883148e-01
      -3.6800197283119945e-01 8.7266444066927656e-02
      1.0395903808107514e-01 1.9438102765046919e-01
      -9.4112552865695698e-02 -4.8454999002124843e-01
      -2.5345486117685962e-02 -1.8858617767868016e-01
      -4.3979859572024915e-01 1.8232624678543805e-01
      -2.7142111705606620e-01 -2.2098481099906700e-01
      -6.8669761715790922e-02 9.4765244054679829e-02
      -5.7834428507230462e-01 -3.4358254578321745e-01
      -2.7915886848068466e-01 6.5763339164840751e-01
      -3.7353346339963744e-01 4.6170039541951136e-01
      -1.7670543579978826e-02 1.2850800333814552e-01
      -1.7743281504722461e-01 -1.0408031814590389e-01
      1.4602258752596090e-01 1.5210337919210173e-01
      -2.3915978841101926e-01 1.5759001387293814e-01
      7.2220766333298797e-02 -2.3265399658292571e-01
      -3.3860678673569022e-01 3.0401856945642930e-01
      -1.1981253993614448e-01 -1.5967357551010468e-02
      3.7269014546914497e-01 -2.7953284123697586e-01
      -6.2385824447915288e-02 1.7262141654313237e-01
      -3.0925572485957470e-01 -2.5112183360751988e-01
      1.8440671841212003e-01 4.5364588760200480e-01
      3.2934455798412055e-01 -2.0559568975193759e-01
      5.6184927623759762e-02 -4.1212378334182294e-02
      9.2630933450633793e-02 -9.8268841746942961e-02
      5.1570050348766903e-02 -4.5442828476366983e-04
      2.2061434225691384e-01 4.4293179512121783e-01
      -2.5634405093393009e-01 4.3046018444347767e-01
      1.9345082748686554e-01 3.1298724827343993e-01
      -6.0142868338152067e-01 -5.4794701700860392e-02
      1.2806007719578671e-01 -1.8915161470131385e-02
      4.3780072464717290e-01 4.4988620690698929e-02
      2.7935890324436280e-01 1.5237474514857727e-01
      6.7334557445754140e-01 -9.1853111264435419e-02
      2.1670082750002173e-01 6.8429912527217140e-02
      -5.8442931480585425e-01 -2.6794239600127856e-01
      5.0696816761090935e-01 5.6320642662701581e-01
      7.1132563324161902e-01 3.3279328546208020e-01
      -2.4096833191631674e-02 5.7477505612625934e-01
      2.3583173991979250e-01 -6.2915112832857001e-02
      2.8186500882261228e-01 -5.5497844827458942e-01
      2.4851040297000651e-01 -7.3489897874854271e-02
      1.1766583710736328e-01 -5.8980471380029520e-01
      3.4971475303096689e-02 2.1693183585689199e-01
      4.3176675273932680e-01 -2.7148608077359765e-01
      -2.2671564398249971e-01 -3.9789824234460569e-01
      -3.3019943040860117e-01 -5.7499955451994011e-01
      -1.2123042503108336e-01 -3.3704018041395317e-01
      1.0318002654559658e-02 -2.5183856458816881e-02
      -2.4742169522441140e-01 4.2948216994338695e-01
      -2.5851368166913397e-01 -3.1494234079710504e-01
      -1.3770140159255656e-02 4.9700808564122421e-02
      2.2705360269897459e-01 -3.4586479767596173e-01
      -1.5962180024879327e-01 1.7536552893379373e-01
      -2.9736015965166475e-03 4.5192084098290225e-01
      -2.9288435896778015e-01 2.7843306701885107e-01
      1.6072628324367461e-01 -1.0577691570085701e+00
      1.0787035346723825e-01 -1.5659155999340585e-01
      1.8535711470957963e-01 2.9016345182545356e-01
      2.6868173782020055e-01 3.0243187401436816e-01
      -4.5634616919711474e-01 -3.9791296073705608e-02
      -1.4360835631835128e-01 4.9978403404893201e-01
      1.0629109510332593e-01 6.2061302440318644e-01
      -2.5338086628824247e-01 6.3450355908234127e-02
      7.7282303853971487e-02 4.1941021986997068e-01
      -1.1816933993678859e-01 1.9907838170026124e-01
      -1.9610552890244579e-01 -1.7663045219417595e-01
      -3.3843970153253589e-01 -2.7370747762307912e-01
      -2.5389605835788592e-01 4.4480653941353909e-01
      -4.7649956606269042e-02 7.1159336628461509e-02
      3.3605581079071067e-01 -4.9867026413461524e-01
      -1.6670764647848613e-01 1.5638501611457958e-01
